svm_type c_svc
kernel_type rbf
gamma 0.000110278
nr_class 2
total_sv 6000
rho 0.00723195
label 1 -1
nr_sv 3000 3000
SV
1 1:0.1255075 2:0.1022882 3:0.0815843 4:0.044686 5:0.0955075 6:0.0477596 7:0.1155075 8:0.0719319 9:0.0874339 
1 11:0.0996578 12:0.1255075 13:0.1155075 14:0.0815843 15:0.1155075 16:0.0922882 17:0.0955075 18:0.1055075 19:0.0317788 20:0.0874339 21:0.0909132 22:0.0065215 23:0.1255075 24:0.1055075 25:0.1022882 26:0.1055075 
1 19:0.0317788 22:0.0195644 27:0.1155075 28:0.0974339 29:0.1155075 30:0.0254793 31:0.0790689 32:0.0482965 33:0.0864386 34:0.1255075 35:0.0838082 36:0.1055075 37:0.0746328 38:0.0715843 39:0.0864386 40:0.1255075 41:0.1155075 42:0.0938082 
1 22:0.0065215 43:0.1096578 44:0.1155075 45:0.0650635 46:0.0624697 47:0.1255075 48:0.0996578 
1 19:0.0317788 49:0.0702718 50:0.1255075 51:0.1255075 52:0.1728771 53:0.0809132 54:0.1155075 55:0.0938082 56:0.0624697 
1 22:0.0065215 45:0.0650635 57:0.1255075 58:0.0909132 59:0.04437 60:0.0864386 
1 22:0.0065215 60:0.0864386 61:0.1155075 62:0.1096578 63:0.0642146 64:0.1022882 65:0.1255075 66:0.0955075 67:0.1055075 68:0.1255075 69:0.0996578 70:0.0759655 71:0.1155075 72:0.1155075 73:0.0734129 74:0.0769277 
1 75:0.1255075 76:0.1255075 77:0.1255075 78:0.0190419 79:0.0922882 80:0.0974339 
1 22:0.0065215 81:0.0864386 82:0.0922882 83:0.1255075 84:0.1155075 85:0.1055075 86:0.0709132 
1 87:0.0974339 88:0.0922882 89:0.0996578 90:0.1255075 91:0.1155075 92:0.1055075 
1 78:0.0190419 93:0.1255075 94:0.0674339 95:0.1155075 96:0.1096578 97:0.1155075 98:0.0922882 
1 19:0.0317788 99:0.1155075 100:0.1055075 101:0.0227462 102:0.0955075 103:0.1255075 
1 19:0.0317788 22:0.0260858 42:0.0938082 104:0.1096578 105:0.0864386 106:0.2045764 107:0.0601159 108:0.0479586 109:0.1096578 110:0.0679586 111:0.1255075 
1 20:0.0874339 22:0.0130429 78:0.0190419 102:0.0955075 112:0.1096578 113:0.0687832 114:0.0938082 115:0.1096578 116:0.1155075 117:0.0938082 118:0.1155075 119:0.1155075 120:0.0614136 121:0.1155075 122:0.0425613 123:0.1055075 
1 20:0.0874339 22:0.0130429 78:0.0190419 102:0.0955075 112:0.1096578 113:0.0687832 114:0.0938082 115:0.1096578 116:0.1155075 117:0.0938082 118:0.1155075 119:0.1155075 120:0.0614136 121:0.1155075 122:0.0425613 123:0.1055075 
1 124:0.1055075 125:0.0313079 126:0.0726534 127:0.1155075 
1 30:0.0254793 59:0.04437 128:0.0974339 129:0.1096578 130:0.0769277 131:0.1255075 132:0.0885031 133:0.1055075 134:0.0693604 135:0.1055075 136:0.0974339 
1 78:0.0190419 137:0.0634129 138:0.0955075 139:0.0996578 140:0.0922882 
1 133:0.1055075 141:0.1055075 142:0.0746328 143:0.1155075 144:0.0996578 145:0.1055075 146:0.0489254 
1 70:0.0759655 147:0.0896578 148:0.1255075 149:0.0790689 150:0.1255075 
1 32:0.0482965 146:0.0489254 151:0.0580928 152:0.1096578 153:0.1155075 154:0.0974339 155:0.1022882 156:0.0846328 157:0.1155075 158:0.0715843 159:0.1055075 
1 19:0.0317788 22:0.0065215 46:0.0624697 160:0.0996578 161:0.1155075 162:0.0838082 163:0.1155075 164:0.1022882 165:0.1022882 166:0.0624697 167:0.0730282 168:0.1255075 169:0.0500385 
1 170:0.0415414 171:0.1155075 172:0.0730282 173:0.1255075 174:0.0855075 175:0.0796578 176:0.0779586 177:0.0469277 178:0.0445271 179:0.0451183 180:0.0830282 
1 56:0.0624697 181:0.0785031 182:0.0955075 183:0.0609132 184:0.0815843 
1 30:0.0254793 181:0.0785031 185:0.1255075 186:0.0696578 187:0.1055075 188:0.0746328 189:0.1255075 190:0.1255075 
1 59:0.04437 126:0.0726534 170:0.0415414 191:0.1255075 192:0.0938082 193:0.0974339 194:0.0809132 
1 22:0.0065215 195:0.1096578 196:0.0874339 197:0.1255075 198:0.0570526 199:0.0922882 
1 19:0.0317788 22:0.0130429 56:0.0624697 200:0.0690689 201:0.0796578 202:0.1022882 203:0.0785031 204:0.1155075 205:0.1155075 206:0.1155075 207:0.0815843 208:0.0938082 209:0.2310149 
1 210:0.0474985 211:0.1155075 212:0.0674339 213:0.1155075 214:0.1055075 215:0.1055075 
1 211:0.1155075 212:0.0674339 213:0.1155075 214:0.1055075 215:0.1055075 
1 216:0.0682283 217:0.0785031 218:0.0955075 219:0.0605889 220:0.0802718 
1 30:0.0254793 221:0.0676939 222:0.1155075 223:0.0874339 224:0.1155075 225:0.0855075 226:0.0746328 
1 186:0.0696578 227:0.0796578 228:0.1255075 229:0.0996578 
1 170:0.0415414 174:0.0855075 176:0.0779586 230:0.0885031 231:0.0838082 232:0.0690689 233:0.1255075 
1 6:0.0477596 234:0.1096578 235:0.0764386 236:0.0485031 237:0.0909132 238:0.0779586 239:0.0730282 
1 229:0.0996578 240:0.1255075 241:0.1155075 242:0.1255075 243:0.1022882 244:0.1055075 245:0.0759655 246:0.1022882 247:0.0955075 
1 22:0.0065215 125:0.0313079 223:0.0874339 248:0.0644222 249:0.1055075 250:0.1055075 251:0.1096578 252:0.1096578 253:0.0473697 254:0.0830282 255:0.0996578 256:0.0715843 257:0.0896578 258:0.1155075 259:0.1055075 260:0.0433158 261:0.1155075 
1 4:0.044686 186:0.0696578 262:0.1155075 263:0.0838082 264:0.1155075 265:0.058365 266:0.1255075 267:0.1255075 
1 3:0.0815843 19:0.0317788 170:0.0415414 236:0.0485031 268:0.0687832 269:0.1022882 270:0.1255075 271:0.0682283 
1 19:0.0635576 272:0.0638082 273:0.0896578 274:0.0974339 275:0.036529 276:0.0922882 277:0.1022882 278:0.0750635 279:0.0719319 280:0.0874339 281:0.0755075 
1 22:0.0065215 282:0.1155075 283:0.1255075 284:0.1096578 285:0.0874339 286:0.1255075 
1 287:0.0974339 288:0.1255075 289:0.0521983 290:0.1155075 
1 6:0.0477596 291:0.1255075 292:0.1255075 293:0.1255075 294:0.0938082 295:0.1255075 296:0.0922882 
1 14:0.0815843 297:0.1096578 298:0.0955075 299:0.0774339 300:0.0996578 
1 22:0.0130429 59:0.04437 181:0.0785031 301:0.0815843 302:0.0726534 303:0.1096578 304:0.0922882 
1 108:0.0479586 181:0.0785031 305:0.1022882 306:0.0996578 307:0.1096578 
1 101:0.0227462 308:0.0549546 309:0.1255075 310:0.1055075 311:0.0846328 312:0.0909132 313:0.0974339 
1 20:0.0874339 22:0.0065215 25:0.1022882 308:0.0549546 314:0.1096578 315:0.0955075 316:0.1055075 317:0.0846328 
1 30:0.0254793 302:0.0726534 318:0.0909132 319:0.1255075 320:0.0996578 321:0.0630282 322:0.0909132 323:0.1022882 
1 94:0.0674339 324:0.1255075 325:0.1055075 326:0.1155075 327:0.1055075 328:0.1022882 329:0.1255075 
1 73:0.0734129 74:0.0769277 186:0.0696578 330:0.1155075 331:0.0750635 
1 46:0.0624697 332:0.1096578 333:0.1096578 334:0.0769277 335:0.1155075 336:0.0815843 337:0.0896578 338:0.1096578 339:0.1155075 340:0.1055075 
1 22:0.0065215 125:0.0313079 341:0.0587832 342:0.0796578 343:0.1284293 344:0.1062468 345:0.1948678 346:0.0996578 347:0.0774339 348:0.0896578 349:0.1055075 350:0.1155075 
1 181:0.0785031 351:0.0955075 352:0.0938082 353:0.1255075 354:0.1255075 355:0.1255075 356:0.1155075 
1 22:0.0065215 100:0.1055075 166:0.0624697 178:0.0445271 179:0.0451183 341:0.0587832 357:0.0738082 358:0.0874339 359:0.0699616 360:0.0738082 361:0.0605889 362:0.1478608 363:0.0911279 364:0.0477596 365:0.0855075 366:0.0685031 367:0.1155075 368:0.0896578 369:0.0938082 370:0.0996578 371:0.1022882 
1 22:0.0130429 100:0.1055075 235:0.0764386 366:0.0685031 367:0.1155075 368:0.0896578 369:0.0938082 370:0.0996578 371:0.1022882 372:0.0755075 373:0.0864386 374:0.0830282 
1 22:0.0065215 125:0.0313079 341:0.0587832 342:0.0796578 343:0.1284293 344:0.1062468 345:0.1948678 346:0.0996578 347:0.0774339 348:0.0896578 349:0.1055075 350:0.1155075 
1 370:0.0996578 375:0.0664386 376:0.0955075 377:0.1055075 378:0.1155075 379:0.1022882 380:0.0974339 
1 22:0.0130429 235:0.0764386 343:0.0642146 344:0.0531234 345:0.0974339 346:0.0996578 347:0.0774339 348:0.0896578 349:0.1055075 372:0.0755075 373:0.0864386 374:0.0830282 
1 22:0.0065215 166:0.0624697 178:0.0445271 179:0.0451183 341:0.0587832 343:0.0642146 344:0.0531234 345:0.0974339 346:0.0996578 347:0.0774339 348:0.0896578 349:0.1055075 357:0.0738082 358:0.0874339 359:0.0699616 360:0.0738082 361:0.0605889 362:0.1478608 363:0.0911279 364:0.0477596 365:0.0855075 
1 6:0.0477596 19:0.0317788 22:0.0065215 125:0.0313079 146:0.0489254 238:0.0779586 299:0.0774339 331:0.0750635 381:0.1096578 382:0.0955075 383:0.1255075 
1 52:0.0864386 87:0.0974339 88:0.0922882 384:0.1022882 385:0.0974339 386:0.1255075 
1 14:0.0815843 73:0.0734129 74:0.0769277 175:0.0796578 196:0.0874339 387:0.1096578 388:0.0938082 389:0.1255075 390:0.0896578 
1 6:0.0477596 81:0.0864386 186:0.0696578 225:0.0855075 229:0.0996578 391:0.06401 392:0.1055075 
1 19:0.0317788 132:0.0885031 393:0.2045764 394:0.0974339 395:0.0974339 
1 3:0.0815843 6:0.0477596 7:0.1155075 396:0.1055075 397:0.0796578 398:0.0846328 
1 399:0.0996578 400:0.0864386 401:0.1096578 402:0.0996578 403:0.1055075 404:0.1155075 405:0.1096578 
1 406:0.0885031 407:0.1255075 408:0.1255075 409:0.0885031 410:0.1255075 
1 94:0.0674339 411:0.1155075 412:0.0909132 413:0.1055075 414:0.1155075 
1 370:0.0996578 376:0.0955075 377:0.1055075 379:0.1022882 380:0.0974339 415:0.0846328 416:0.0938082 
1 78:0.0190419 167:0.0730282 417:0.0742146 418:0.1993157 
1 56:0.0624697 186:0.0696578 419:0.1255075 420:0.1155075 421:0.1155075 422:0.0996578 
1 59:0.04437 125:0.0313079 225:0.0855075 391:0.06401 423:0.0974339 424:0.0938082 425:0.1096578 426:0.1255075 427:0.1255075 
1 14:0.0815843 73:0.0734129 74:0.0769277 196:0.0874339 387:0.1096578 388:0.0938082 428:0.1255075 
1 30:0.0254793 221:0.0676939 337:0.0896578 344:0.0531234 429:0.0864386 430:0.1255075 431:0.1096578 432:0.1022882 
1 6:0.0477596 19:0.0317788 125:0.0313079 146:0.0489254 220:0.0802718 433:0.1022882 434:0.1022882 435:0.1255075 436:0.1055075 437:0.1155075 438:0.1055075 
1 35:0.0838082 239:0.0730282 439:0.0269744 440:0.0922882 441:0.0938082 442:0.0974339 443:0.0885031 
1 186:0.0696578 444:0.0664386 445:0.1155075 446:0.1055075 447:0.0974339 448:0.0855075 
1 22:0.0065215 56:0.1249393 186:0.1393157 400:0.1728771 412:0.2727395 449:0.1876164 450:0.1728771 451:0.2310149 452:0.066681 
1 101:0.0227462 312:0.0909132 423:0.0974339 447:0.0974339 453:0.0938082 454:0.1055075 455:0.066681 456:0.1022882 457:0.1155075 458:0.1055075 
1 30:0.0254793 138:0.0955075 457:0.1155075 459:0.0996578 460:0.1255075 461:0.1022882 
1 194:0.0809132 462:0.0938082 463:0.0562001 464:0.0785031 465:0.0671786 
1 5:0.0955075 174:0.0855075 423:0.0974339 454:0.1055075 466:0.0802718 467:0.1255075 468:0.1096578 469:0.1096578 470:0.0734129 
1 126:0.0726534 471:0.1096578 472:0.1255075 473:0.1022882 474:0.1255075 475:0.1055075 
1 48:0.0996578 212:0.0674339 476:0.1348678 477:0.1096578 478:0.1055075 479:0.0526534 
1 94:0.0674339 225:0.0855075 348:0.0896578 480:0.0955075 481:0.0759655 482:0.1255075 483:0.1096578 
1 186:0.0696578 444:0.0664386 445:0.1155075 446:0.1055075 447:0.0974339 
1 8:0.0719319 212:0.0674339 449:0.0938082 484:0.0955075 485:0.0909132 486:0.1255075 
1 8:0.0719319 449:0.0938082 455:0.066681 487:0.0715843 488:0.0632193 
1 146:0.0489254 308:0.0549546 344:0.0531234 489:0.1096578 490:0.1255075 491:0.0974339 492:0.1022882 493:0.1096578 
1 19:0.0317788 22:0.0065215 52:0.0864386 73:0.0734129 74:0.0769277 94:0.0674339 192:0.0938082 388:0.0938082 494:0.0974339 495:0.1255075 496:0.1155075 497:0.2310149 498:0.1255075 499:0.2238985 500:0.1096578 501:0.1255075 502:0.0671786 
1 146:0.0489254 331:0.0750635 503:0.1096578 504:0.0909132 505:0.1055075 506:0.0755075 507:0.1255075 508:0.1155075 
1 239:0.0730282 439:0.0269744 440:0.0922882 441:0.0938082 442:0.0974339 509:0.1096578 510:0.1055075 
1 22:0.0065215 46:0.0624697 146:0.0489254 192:0.0938082 511:0.1155075 512:0.1255075 513:0.0896578 514:0.1255075 
1 8:0.0719319 449:0.0938082 515:0.0996578 516:0.0996578 517:0.0730282 
1 35:0.0838082 125:0.0313079 146:0.0489254 443:0.0885031 518:0.1022882 519:0.0974339 520:0.1022882 521:0.0955075 522:0.1155075 523:0.1155075 
1 6:0.0477596 236:0.0485031 238:0.0779586 239:0.0730282 524:0.1022882 525:0.1022882 526:0.0996578 
1 56:0.0624697 308:0.0549546 527:0.1155075 528:0.1022882 529:0.0855075 530:0.0730282 531:0.1255075 532:0.1255075 
1 146:0.0489254 184:0.0815843 236:0.0485031 519:0.0974339 533:0.1096578 534:0.0922882 535:0.1155075 536:0.0955075 537:0.1096578 
1 56:0.0624697 220:0.0802718 299:0.0774339 538:0.1022882 539:0.1096578 540:0.1055075 541:0.1255075 
1 146:0.0489254 304:0.0922882 542:0.0726534 543:0.1255075 544:0.1255075 545:0.1155075 546:0.0922882 
1 73:0.0734129 74:0.0769277 196:0.0874339 387:0.1096578 388:0.0938082 
1 22:0.0065215 279:0.0719319 357:0.0738082 547:0.1255075 548:0.1255075 549:0.1055075 550:0.1155075 551:0.1155075 
1 56:0.0624697 138:0.0955075 552:0.1055075 553:0.0764386 554:0.0885031 555:0.0874339 
1 146:0.0489254 479:0.0526534 556:0.1255075 557:0.0822882 558:0.0796578 559:0.0955075 
1 45:0.0650635 560:0.0809132 561:0.1155075 562:0.1255075 563:0.0938082 
1 22:0.0195644 235:0.0764386 372:0.0755075 373:0.0864386 374:0.0830282 564:0.1055075 565:0.0774339 566:0.1055075 567:0.1155075 
1 22:0.0065215 166:0.0624697 178:0.0445271 179:0.0451183 341:0.0587832 357:0.0738082 358:0.0874339 359:0.0699616 360:0.0738082 361:0.0605889 362:0.1478608 363:0.0911279 364:0.0477596 365:0.0855075 564:0.1055075 565:0.0774339 566:0.1055075 567:0.1155075 
1 134:0.0693604 196:0.0874339 245:0.0759655 249:0.1055075 271:0.0682283 568:0.0864386 569:0.0864386 570:0.1255075 571:0.1022882 
1 59:0.04437 125:0.0313079 146:0.0489254 285:0.0874339 572:0.1155075 573:0.1155075 574:0.1155075 
1 108:0.0479586 212:0.0674339 465:0.0671786 469:0.1096578 470:0.0734129 575:0.0796578 576:0.0938082 577:0.1155075 578:0.0802718 
1 22:0.0195644 55:0.0938082 166:0.0624697 178:0.0445271 179:0.0451183 341:0.0587832 357:0.0738082 358:0.0874339 359:0.0699616 360:0.0738082 361:0.0605889 362:0.1478608 363:0.0911279 364:0.0477596 365:0.0855075 579:0.1022882 580:0.1155075 581:0.1022882 582:0.1022882 
1 22:0.0260858 55:0.0938082 235:0.0764386 372:0.0755075 373:0.0864386 374:0.0830282 579:0.1022882 580:0.1155075 581:0.1022882 582:0.1022882 
1 22:0.0065215 78:0.0190419 146:0.0489254 583:0.0974339 584:0.0644222 585:0.0685031 586:0.0764386 587:0.0709132 588:0.1055075 
1 113:0.0687832 146:0.0489254 589:0.1255075 590:0.1096578 591:0.1255075 592:0.1255075 
1 146:0.0489254 461:0.1022882 593:0.1255075 594:0.1255075 595:0.1155075 
1 146:0.0489254 282:0.1155075 540:0.1055075 596:0.1255075 597:0.1096578 598:0.1055075 
1 16:0.0922882 599:0.1155075 600:0.1055075 601:0.0996578 
1 19:0.0317788 196:0.0874339 395:0.0974339 602:0.0955075 603:0.1155075 604:0.1255075 605:0.1255075 606:0.0922882 607:0.0830282 
1 22:0.0065215 608:0.0996578 609:0.0909132 610:0.0764386 611:0.1255075 612:0.1022882 613:0.1096578 
1 22:0.0065215 146:0.0489254 170:0.0415414 614:0.0607501 615:0.0996578 616:0.1055075 
1 187:0.1055075 262:0.1155075 264:0.1155075 617:0.1096578 618:0.1255075 
1 19:0.0317788 375:0.0664386 569:0.0864386 619:0.0922882 620:0.1155075 621:0.0955075 
1 22:0.0065215 376:0.0955075 622:0.0838082 623:0.0996578 624:0.1155075 625:0.1255075 626:0.0996578 
1 146:0.0489254 183:0.0609132 304:0.0922882 627:0.1055075 628:0.1255075 629:0.1096578 630:0.1255075 631:0.0874339 
1 558:0.0796578 632:0.0855075 633:0.0938082 634:0.0955075 635:0.0974339 636:0.1155075 
1 416:0.0938082 455:0.066681 637:0.0922882 638:0.1255075 639:0.1155075 640:0.0896578 641:0.1255075 
1 194:0.0809132 462:0.0938082 463:0.0562001 464:0.0785031 465:0.0671786 
1 30:0.0509586 448:0.0855075 576:0.0938082 642:0.1022882 643:0.1155075 644:0.1096578 645:0.0855075 
1 325:0.1055075 646:0.1255075 647:0.1255075 648:0.1055075 649:0.0846328 650:0.0909132 651:0.1022882 
1 336:0.0815843 441:0.0938082 455:0.066681 652:0.1022882 653:0.0593604 654:0.0764386 655:0.0974339 656:0.1155075 657:0.1255075 
1 146:0.0489254 493:0.1096578 658:0.1055075 659:0.1155075 660:0.1255075 661:0.0909132 
1 19:0.0317788 94:0.0674339 170:0.0415414 344:0.0531234 497:0.2310149 662:0.0734129 663:0.1255075 
1 441:0.0938082 656:0.1155075 664:0.1096578 665:0.0662001 666:0.1255075 667:0.1255075 
1 22:0.0065215 146:0.0489254 158:0.0715843 613:0.1096578 668:0.1255075 669:0.1255075 670:0.0864386 671:0.1022882 672:0.1096578 673:0.1055075 
1 56:0.0624697 245:0.0759655 481:0.0759655 674:0.1155075 675:0.1255075 676:0.0769277 677:0.1096578 678:0.1255075 
1 122:0.0425613 633:0.0938082 679:0.1096578 680:0.0802718 681:0.0955075 682:0.0974339 
1 146:0.0489254 238:0.0779586 524:0.1022882 525:0.1022882 526:0.0996578 683:0.0822882 
1 132:0.0885031 442:0.0974339 479:0.0526534 684:0.1255075 
1 19:0.0317788 22:0.0065215 223:0.0874339 250:0.1055075 254:0.1660564 255:0.0996578 256:0.0715843 257:0.0896578 261:0.1155075 441:0.0938082 685:0.0855075 686:0.0938082 687:0.1255075 688:0.1255075 689:0.1096578 690:0.0822882 
1 181:0.0785031 341:0.0587832 691:0.1255075 692:0.1255075 693:0.1155075 694:0.0896578 695:0.1255075 
1 31:0.0790689 78:0.0190419 101:0.0227462 696:0.0275633 697:0.0955075 698:0.0664386 699:0.0822882 
1 336:0.0815843 337:0.0896578 652:0.1022882 700:0.0938082 701:0.1255075 
1 137:0.0634129 140:0.0922882 702:0.0896578 703:0.1055075 704:0.0738082 705:0.1022882 
1 19:0.0317788 132:0.0885031 391:0.06401 394:0.0974339 706:0.1096578 707:0.0938082 708:0.0996578 709:0.0864386 
1 19:0.0317788 132:0.0885031 391:0.06401 394:0.0974339 706:0.1096578 707:0.0938082 708:0.0996578 709:0.0864386 
1 16:0.0922882 19:0.0317788 25:0.1022882 385:0.0974339 599:0.1155075 600:0.1055075 601:0.0996578 710:0.1096578 
1 22:0.0065215 337:0.0896578 441:0.0938082 711:0.0996578 712:0.1155075 713:0.1255075 714:0.0796578 715:0.1022882 716:0.1255075 
1 22:0.0065215 30:0.0254793 357:0.0738082 553:0.0764386 717:0.1155075 718:0.0662001 719:0.0955075 720:0.0909132 721:0.1255075 722:0.1022882 
1 170:0.0415414 177:0.0469277 178:0.0445271 179:0.0451183 180:0.0830282 238:0.0779586 281:0.0755075 524:0.1022882 525:0.1022882 526:0.0996578 714:0.0796578 
1 19:0.0317788 94:0.0674339 296:0.0922882 499:0.2238985 723:0.1255075 724:0.1096578 725:0.0809132 726:0.1055075 
1 6:0.0477596 727:0.0796578 728:0.1022882 729:0.0909132 730:0.1255075 731:0.1155075 732:0.0955075 733:0.1055075 
1 22:0.0130429 246:0.1022882 279:0.0719319 357:0.0738082 444:0.0664386 455:0.066681 465:0.0671786 734:0.0864386 735:0.0687832 736:0.0822882 
1 4:0.044686 46:0.0624697 192:0.0938082 268:0.0687832 506:0.0755075 737:0.1022882 738:0.1022882 739:0.1022882 740:0.1255075 
1 94:0.0674339 231:0.0838082 741:0.1055075 742:0.1096578 743:0.1096578 744:0.1096578 
1 221:0.0676939 230:0.0885031 351:0.0955075 745:0.0746328 746:0.0855075 
1 30:0.0509586 448:0.0855075 576:0.0938082 642:0.1022882 643:0.1155075 644:0.1096578 645:0.0855075 747:0.1155075 
1 19:0.0635576 22:0.0065215 394:0.0974339 499:0.2238985 553:0.0764386 737:0.1022882 748:0.0896578 749:0.1055075 
1 56:0.0624697 351:0.0955075 750:0.1055075 751:0.0730282 752:0.1155075 753:0.1022882 
1 22:0.0065215 38:0.0715843 56:0.0624697 108:0.0479586 146:0.0489254 158:0.0715843 754:0.1793157 755:0.1255075 756:0.1255075 757:0.0734129 758:0.0996578 759:0.1255075 760:0.0896578 
1 19:0.0317788 22:0.0065215 446:0.1055075 447:0.0974339 448:0.0855075 642:0.1022882 761:0.1096578 762:0.1255075 763:0.1255075 764:0.0996578 
1 22:0.0065215 59:0.04437 308:0.1099093 317:0.0846328 368:0.0896578 765:0.0922882 766:0.1155075 767:0.1255075 768:0.1255075 769:0.0655075 770:0.0922882 771:0.0769277 
1 146:0.0489254 308:0.0549546 340:0.1055075 640:0.0896578 772:0.1022882 773:0.1055075 
1 22:0.0065215 30:0.0254793 155:0.1022882 774:0.0909132 775:0.0996578 776:0.1096578 777:0.1255075 
1 22:0.0065215 296:0.0922882 314:0.1096578 753:0.1022882 778:0.1155075 779:0.1255075 780:0.0938082 781:0.0896578 782:0.1155075 783:0.1155075 
1 94:0.0674339 231:0.0838082 743:0.1096578 744:0.1096578 784:0.1096578 785:0.0996578 
1 94:0.0674339 125:0.0313079 483:0.1096578 528:0.1022882 540:0.1055075 642:0.1022882 786:0.1255075 787:0.1155075 
1 19:0.0317788 94:0.0674339 569:0.0864386 788:0.1155075 789:0.1255075 790:0.0922882 791:0.1155075 792:0.0974339 
1 73:0.0734129 74:0.0769277 232:0.0690689 793:0.1255075 794:0.2510149 795:0.0974339 796:0.1255075 797:0.0996578 
1 186:0.0696578 299:0.0774339 774:0.0909132 798:0.1255075 799:0.1255075 800:0.1645764 801:0.1096578 802:0.0802718 803:0.0996578 
1 19:0.0317788 22:0.0065215 73:0.0734129 74:0.0769277 232:0.0690689 388:0.0938082 623:0.0996578 804:0.1022882 805:0.1255075 806:0.1155075 807:0.0938082 
1 22:0.0065215 553:0.0764386 601:0.0996578 737:0.1022882 748:0.0896578 749:0.1055075 
1 366:0.0685031 808:0.1155075 809:0.1096578 810:0.1710149 
1 108:0.0479586 181:0.0785031 305:0.1022882 306:0.0996578 452:0.066681 811:0.1255075 
1 30:0.0509586 308:0.0549546 312:0.0909132 317:0.0846328 321:0.0630282 812:0.0885031 813:0.0815843 814:0.1255075 815:0.1255075 
1 420:0.1155075 421:0.1155075 816:0.0456206 817:0.0996578 818:0.0896578 819:0.1022882 820:0.1022882 821:0.1155075 
1 78:0.0190419 236:0.0485031 745:0.0746328 822:0.0974339 823:0.0864386 824:0.1096578 825:0.1255075 826:0.0830282 827:0.1155075 828:0.1255075 829:0.0996578 830:0.1096578 
1 19:0.0317788 22:0.0065215 257:0.0896578 312:0.0909132 831:0.1155075 832:0.1155075 833:0.1255075 834:0.1255075 
1 181:0.0785031 186:0.0696578 276:0.0922882 627:0.1055075 636:0.1155075 835:0.0655075 836:0.1255075 837:0.0830282 
1 19:0.0317788 101:0.0227462 268:0.0687832 838:0.1022882 839:0.1155075 840:0.1155075 
1 19:0.0317788 22:0.0195644 56:0.0624697 500:0.1096578 513:0.0896578 542:0.0726534 841:0.2193157 842:0.0874339 843:0.1155075 844:0.1022882 845:0.1096578 846:0.1155075 847:0.0896578 
1 72:0.1155075 343:0.0642146 376:0.0955075 697:0.0955075 848:0.0922882 849:0.1096578 
1 337:0.0896578 463:0.0562001 850:0.0885031 851:0.0896578 852:0.0687832 853:0.1055075 854:0.0996578 855:0.1255075 
1 92:0.1055075 239:0.0730282 527:0.1155075 856:0.0922882 857:0.1255075 858:0.1255075 859:0.1255075 860:0.1055075 861:0.1255075 862:0.1255075 
1 19:0.0317788 64:0.1022882 167:0.0730282 321:0.0630282 795:0.0974339 863:0.1155075 
1 78:0.0190419 151:0.0580928 153:0.1155075 154:0.0974339 155:0.1022882 156:0.0846328 157:0.1155075 864:0.0726534 865:0.1155075 
1 19:0.0317788 146:0.0489254 268:0.0687832 838:0.1022882 839:0.1155075 840:0.1155075 866:0.0996578 
1 146:0.0489254 479:0.0526534 653:0.0593604 867:0.1155075 868:0.1255075 869:0.0955075 870:0.0909132 871:0.1255075 872:0.1255075 873:0.1255075 
1 146:0.0489254 203:0.0785031 615:0.0996578 874:0.1255075 875:0.1096578 876:0.1155075 877:0.0955075 878:0.1255075 
1 107:0.0601159 132:0.0885031 499:0.2238985 852:0.0687832 879:0.1155075 880:0.0955075 881:0.0730282 882:0.1255075 883:0.0996578 
1 108:0.0479586 304:0.0922882 307:0.1096578 653:0.0593604 769:0.0655075 884:0.1096578 885:0.1096578 886:0.1255075 
1 14:0.0815843 458:0.1055075 887:0.1255075 888:0.1155075 
1 146:0.0489254 444:0.0664386 889:0.2110149 890:0.0909132 891:0.1255075 892:0.1155075 893:0.0938082 
1 336:0.0815843 337:0.0896578 347:0.0774339 400:0.0864386 850:0.0885031 894:0.0628396 895:0.1096578 
1 45:0.0650635 59:0.04437 146:0.0489254 896:0.1022882 897:0.1155075 898:0.1255075 899:0.1255075 
1 146:0.0489254 366:0.0685031 808:0.1155075 809:0.1096578 810:0.1710149 
1 19:0.0317788 22:0.0065215 59:0.04437 296:0.0922882 499:0.2238985 780:0.0938082 781:0.0896578 900:0.1255075 901:0.1255075 902:0.1055075 903:0.0974339 
1 73:0.0734129 74:0.0769277 694:0.0896578 904:0.1022882 905:0.0922882 906:0.1255075 
1 59:0.04437 907:0.0996578 908:0.1255075 909:0.0922882 910:0.1096578 911:0.1155075 
1 334:0.0769277 400:0.0864386 423:0.0974339 632:0.0855075 912:0.1155075 913:0.1055075 
1 19:0.0317788 232:0.0690689 271:0.0682283 372:0.0755075 470:0.0734129 914:0.1255075 915:0.0974339 916:0.1055075 
1 22:0.0065215 146:0.0489254 479:0.0526534 769:0.0655075 917:0.1155075 918:0.1255075 919:0.1255075 
1 19:0.0317788 101:0.0227462 818:0.0896578 920:0.1155075 921:0.1255075 922:0.1255075 923:0.1255075 924:0.0922882 925:0.0864386 
1 336:0.0815843 337:0.0896578 463:0.0562001 850:0.0885031 926:0.0874339 927:0.1022882 
1 19:0.0317788 22:0.0065215 37:0.0746328 268:0.0687832 294:0.0938082 928:0.1255075 929:0.1255075 930:0.0838082 
1 480:0.0955075 758:0.0996578 931:0.0796578 932:0.1255075 933:0.0938082 934:0.0755075 
1 30:0.0254793 94:0.0674339 182:0.0955075 453:0.0938082 459:0.0996578 631:0.0874339 795:0.0974339 935:0.1255075 936:0.1255075 937:0.1255075 938:0.1155075 939:0.1155075 940:0.1155075 
1 78:0.0190419 101:0.0227462 158:0.0715843 232:0.0690689 382:0.0955075 454:0.1055075 924:0.0922882 941:0.1255075 942:0.1022882 
1 78:0.0190419 87:0.0974339 146:0.0489254 468:0.1096578 631:0.0874339 895:0.1096578 943:0.1055075 944:0.0922882 945:0.0746328 
1 745:0.0746328 775:0.0996578 946:0.1155075 947:0.1255075 948:0.0582283 949:0.0815843 950:0.1096578 
1 19:0.0317788 45:0.0650635 78:0.0190419 101:0.0227462 174:0.0855075 424:0.0938082 585:0.0685031 707:0.0938082 951:0.1255075 
1 59:0.04437 186:0.0696578 253:0.0473697 850:0.0885031 952:0.0815843 953:0.1155075 954:0.1255075 
1 73:0.0734129 74:0.0769277 156:0.0846328 166:0.1249393 223:0.0874339 412:0.0909132 955:0.0974339 956:0.0996578 
1 212:0.0674339 232:0.0690689 372:0.1510149 957:0.1055075 958:0.1255075 
1 751:0.0730282 818:0.0896578 819:0.1022882 959:0.1255075 960:0.1255075 961:0.1155075 962:0.1022882 963:0.1255075 
1 86:0.0709132 598:0.1055075 881:0.0730282 964:0.0685031 
1 9:0.0874339 19:0.0317788 22:0.0195644 31:0.0790689 42:0.0938082 124:0.1055075 281:0.0755075 310:0.1055075 322:0.0909132 965:0.0996578 966:0.1255075 967:0.1155075 968:0.1155075 969:0.1055075 970:0.0864386 971:0.1155075 972:0.1155075 973:0.1055075 974:0.0864386 
1 59:0.04437 186:0.0696578 746:0.0855075 975:0.1255075 976:0.1096578 977:0.1055075 
1 78:0.0190419 468:0.1096578 807:0.0938082 978:0.1155075 979:0.0709132 980:0.1155075 981:0.0938082 
1 19:0.0317788 46:0.0624697 132:0.0885031 315:0.0955075 321:0.0630282 732:0.0955075 880:0.0955075 982:0.0874339 983:0.1096578 984:0.0938082 985:0.1255075 986:0.0864386 
1 22:0.0065215 452:0.066681 568:0.0864386 720:0.0909132 801:0.1096578 987:0.0974339 988:0.1255075 989:0.1255075 
1 19:0.0635576 22:0.0065215 232:0.0690689 372:0.0755075 602:0.0955075 916:0.1055075 990:0.1255075 991:0.1255075 992:0.0896578 
1 125:0.0313079 146:0.0489254 181:0.0785031 894:0.0628396 993:0.1255075 994:0.1055075 995:0.1255075 
1 81:0.0864386 94:0.0674339 302:0.0726534 996:0.0996578 997:0.1155075 998:0.0938082 999:0.1155075 
1 6:0.0477596 70:0.0759655 238:0.0779586 239:0.0730282 263:0.0838082 524:0.1022882 526:0.0996578 1000:0.1255075 
1 19:0.0317788 78:0.0190419 132:0.0885031 192:0.0938082 557:0.0822882 880:0.0955075 1001:0.1055075 1002:0.1255075 
1 125:0.0313079 317:0.0846328 334:0.0769277 576:0.0938082 764:0.0996578 770:0.0922882 1003:0.1096578 1004:0.0874339 1005:0.1055075 1006:0.1255075 1007:0.1022882 
1 22:0.0065215 279:0.0719319 357:0.0738082 519:0.0974339 534:0.0922882 551:0.1155075 694:0.0896578 1008:0.1255075 
1 19:0.0317788 866:0.0996578 1009:0.1096578 1010:0.0896578 1011:0.1155075 1012:0.1096578 
1 336:0.0815843 337:0.0896578 652:0.1022882 711:0.0996578 1013:0.1155075 
1 19:0.0317788 22:0.0130429 42:0.0938082 289:0.0521983 637:0.0922882 1014:0.1055075 1015:0.1155075 1016:0.0996578 1017:0.0955075 1018:0.0974339 
1 19:0.0317788 22:0.0065215 183:0.0609132 479:0.0526534 557:0.0822882 558:0.0796578 1014:0.1055075 
1 19:0.0317788 866:0.0996578 1009:0.1096578 1010:0.0896578 1011:0.1155075 1012:0.1096578 
1 22:0.0065215 125:0.0313079 132:0.0885031 146:0.0489254 318:0.0909132 479:0.0526534 1019:0.0922882 1020:0.1255075 1021:0.0815843 
1 19:0.0317788 137:0.0634129 979:0.0709132 1009:0.1096578 1010:0.0896578 1012:0.1096578 1022:0.1022882 1023:0.1255075 1024:0.0996578 1025:0.0477596 1026:0.0764386 
1 46:0.0624697 94:0.0674339 826:0.0830282 1027:0.1055075 1028:0.1096578 1029:0.1255075 
1 1030:0.1255075 1031:0.1255075 1032:0.0909132 1033:0.1255075 1034:0.1096578 
1 122:0.0425613 221:0.0676939 484:0.0955075 
1 19:0.0317788 45:0.0650635 316:0.1055075 321:0.1260564 734:0.0864386 852:0.0687832 880:0.0955075 1035:0.0922882 1036:0.1055075 
1 78:0.0190419 317:0.0846328 368:0.0896578 446:0.1055075 447:0.0974339 448:0.0855075 770:0.0922882 1037:0.0938082 1038:0.1255075 
1 30:0.0254793 78:0.0190419 79:0.0922882 101:0.0454924 125:0.0313079 312:0.0909132 317:0.0846328 1039:0.1055075 
1 117:0.0938082 181:0.0785031 305:0.1022882 629:0.1096578 1040:0.1255075 1041:0.0922882 
1 9:0.0874339 19:0.0317788 22:0.0195644 31:0.0790689 42:0.0938082 124:0.1055075 281:0.0755075 310:0.1055075 322:0.0909132 965:0.0996578 967:0.1155075 968:0.1155075 969:0.1055075 970:0.0864386 971:0.1155075 972:0.1155075 973:0.1055075 974:0.0864386 1042:0.1096578 
1 19:0.0317788 22:0.0195644 158:0.0715843 160:0.0996578 166:0.0624697 167:0.0730282 513:0.0896578 1043:0.1096578 1044:0.0974339 1045:0.1096578 1046:0.0864386 1047:0.1155075 1048:0.1155075 1049:0.1096578 1050:0.1155075 1051:0.0602718 
1 22:0.0065215 351:0.0955075 745:0.0746328 829:0.0996578 1052:0.1255075 
1 248:0.0644222 308:0.0549546 465:0.0671786 1053:0.1055075 1054:0.1155075 1055:0.1022882 1056:0.1096578 
1 22:0.0065215 46:0.0624697 56:0.0624697 208:0.0938082 1032:0.0909132 1057:0.1255075 
1 73:0.0734129 74:0.0769277 232:0.0690689 804:0.1022882 1058:0.0974339 1059:0.1255075 1060:0.1255075 
1 19:0.0317788 56:0.0624697 707:0.0938082 757:0.0734129 1061:0.1255075 1062:0.1055075 
1 24:0.1055075 33:0.0864386 73:0.0734129 74:0.0769277 155:0.1022882 235:0.0764386 275:0.036529 395:0.0974339 499:0.1492657 623:0.0996578 
1 317:0.0846328 770:0.1845764 1063:0.1255075 1064:0.0885031 1065:0.1255075 1066:0.1255075 
1 125:0.0313079 317:0.0846328 751:0.0730282 770:0.0922882 818:0.0896578 1067:0.1155075 1068:0.1155075 1069:0.1255075 
1 46:0.0624697 126:0.0726534 1070:0.1155075 1071:0.1022882 1072:0.0874339 
1 8:0.0719319 182:0.0955075 285:0.0874339 334:0.0769277 610:0.0764386 1073:0.1255075 1074:0.1096578 1075:0.0676939 
1 125:0.0313079 308:0.0549546 517:0.0730282 1076:0.0974339 1077:0.1255075 1078:0.1022882 
1 19:0.0635576 60:0.0864386 308:0.0549546 344:0.0531234 1044:0.0974339 1079:0.0669277 1080:0.1055075 1081:0.1096578 1082:0.1096578 
1 30:0.0254793 223:0.0874339 285:0.0874339 538:0.1022882 665:0.0662001 930:0.0838082 1083:0.0830282 1084:0.0838082 
1 46:0.0624697 126:0.0726534 1070:0.1155075 1071:0.1022882 1072:0.0874339 
1 108:0.0479586 308:0.0549546 609:0.0909132 1085:0.1022882 1086:0.0996578 1087:0.1096578 
1 73:0.0734129 74:0.0769277 146:0.0489254 388:0.0938082 1088:0.1255075 1089:0.0709132 1090:0.1155075 1091:0.1255075 
1 73:0.0734129 74:0.0769277 245:0.0759655 388:0.0938082 677:0.1096578 704:0.0738082 1089:0.0709132 1092:0.1096578 1093:0.0809132 
1 19:0.0317788 94:0.0674339 156:0.0846328 176:0.0779586 645:0.0855075 1094:0.1055075 1095:0.0838082 1096:0.1255075 1097:0.1022882 
1 525:0.1022882 526:0.0996578 1056:0.1096578 1098:0.1255075 
1 22:0.0130429 104:0.1096578 212:0.0674339 302:0.0726534 341:0.0587832 455:0.066681 602:0.0955075 774:0.0909132 1099:0.1155075 1100:0.1255075 1101:0.0790689 1102:0.1096578 1103:0.1255075 
1 19:0.0317788 22:0.0260858 59:0.04437 86:0.0709132 167:0.1460564 444:0.0664386 465:0.0671786 662:0.0734129 1075:0.0676939 1104:0.1155075 1105:0.1055075 1106:0.1255075 1107:0.1096578 1108:0.0473697 1109:0.0705889 
1 19:0.0317788 850:0.0885031 955:0.0974339 1110:0.1096578 1111:0.0955075 1112:0.1155075 
1 156:0.0846328 1113:0.2045764 1114:0.1255075 1115:0.1155075 1116:0.1155075 
1 751:0.0730282 1117:0.1255075 1118:0.1155075 1119:0.1255075 
1 2:0.1022882 140:0.0922882 645:0.0855075 1120:0.0759655 1121:0.1055075 1122:0.1155075 
1 19:0.0317788 881:0.0730282 1123:0.1096578 1124:0.1155075 1125:0.1255075 1126:0.0996578 1127:0.0996578 
1 905:0.0922882 1128:0.1255075 1129:0.1096578 1130:0.0774339 
1 22:0.0130429 146:0.0489254 221:0.0676939 970:0.0864386 1131:0.0790689 1132:0.1096578 1133:0.1255075 1134:0.1055075 
1 317:0.0846328 665:0.0662001 1135:0.1022882 1136:0.0955075 1137:0.1255075 
1 56:0.0624697 1010:0.0896578 1138:0.0885031 1139:0.0974339 1140:0.0996578 1141:0.0974339 
1 948:0.0582283 998:0.0938082 1142:0.0595083 1143:0.1155075 1144:0.0864386 1145:0.1255075 
1 718:0.0662001 927:0.1022882 948:0.1164565 1146:0.1155075 1147:0.1155075 1148:0.0996578 1149:0.0864386 1150:0.1155075 1151:0.1255075 
1 138:0.0955075 425:0.1096578 576:0.0938082 1152:0.0955075 1153:0.1096578 1154:0.1255075 
1 19:0.0317788 22:0.0065215 56:0.0624697 1155:0.1255075 1156:0.0864386 1157:0.0846328 1158:0.0874339 1159:0.1255075 1160:0.1055075 
1 19:0.0317788 22:0.0065215 33:0.0864386 208:0.0938082 313:0.0974339 518:0.1022882 1161:0.1155075 1162:0.1155075 1163:0.1155075 1164:0.1096578 1165:0.1096578 1166:0.1022882 1167:0.0955075 1168:0.0996578 1169:0.1155075 1170:0.1155075 1171:0.1155075 1172:0.1155075 1173:0.1155075 1174:0.1096578 1175:0.1155075 1176:0.0669277 
1 19:0.0317788 56:0.0624697 108:0.0479586 351:0.0955075 1177:0.1155075 1178:0.0909132 1179:0.1255075 
1 440:0.0922882 464:0.0785031 465:0.0671786 1180:0.0996578 1181:0.1255075 
1 22:0.0130429 46:0.0624697 992:0.0896578 1051:0.0602718 1176:0.0669277 1182:0.1155075 1183:0.0846328 1184:0.0938082 1185:0.1155075 1186:0.1255075 1187:0.0636092 1188:0.1255075 1189:0.1155075 1190:0.0846328 1191:0.0974339 
1 22:0.0065215 59:0.04437 279:0.0719319 308:0.0549546 357:0.0738082 1192:0.0955075 1193:0.0996578 1194:0.1255075 1195:0.1255075 1196:0.1096578 
1 19:0.0317788 22:0.0130429 33:0.0864386 208:0.0938082 313:0.0974339 518:0.1022882 1161:0.1155075 1162:0.1155075 1163:0.1155075 1164:0.1096578 1165:0.1096578 1166:0.1022882 1167:0.0955075 1168:0.0996578 1169:0.1155075 1170:0.1155075 1171:0.1155075 1172:0.1155075 1173:0.1155075 1174:0.1096578 1175:0.1155075 1197:0.1255075 
1 22:0.0065215 279:0.0719319 357:0.0738082 1198:0.1022882 1199:0.1155075 1200:0.0293604 1201:0.1255075 1202:0.1155075 
1 334:0.0769277 458:0.1055075 632:0.0855075 1203:0.1255075 1204:0.1155075 1205:0.0938082 
1 19:0.0317788 30:0.0254793 232:0.0690689 372:0.0755075 957:0.1055075 1206:0.1155075 1207:0.0885031 1208:0.1255075 
1 253:0.0473697 425:0.1096578 455:0.066681 1153:0.1096578 1209:0.1255075 1210:0.1022882 1211:0.1255075 
1 146:0.0489254 221:0.0676939 1212:0.1255075 1213:0.1255075 1214:0.1255075 
1 8:0.0719319 166:0.0624697 741:0.1055075 894:0.0628396 1166:0.1022882 1184:0.0938082 1215:0.1096578 1216:0.0974339 
1 8:0.0719319 311:0.0846328 366:0.0685031 575:0.0796578 745:0.0746328 1217:0.1155075 1218:0.0996578 
1 19:0.0317788 22:0.0130429 146:0.0489254 757:0.0734129 797:0.0996578 1219:0.0846328 1220:0.1255075 
1 42:0.0938082 221:0.0676939 746:0.0855075 1221:0.1055075 1222:0.0974339 1223:0.0885031 
1 19:0.0317788 62:0.1096578 186:0.0696578 697:0.0955075 1224:0.1022882 
1 19:0.0317788 56:0.0624697 343:0.0642146 1225:0.1255075 1226:0.0974339 1227:0.0874339 1228:0.1255075 
1 19:0.0317788 56:0.0624697 58:0.0909132 553:0.0764386 1113:0.1022882 1229:0.1022882 1230:0.1255075 1231:0.1255075 1232:0.0974339 
1 236:0.0485031 351:0.0955075 415:0.0846328 645:0.0855075 745:0.0746328 1233:0.1255075 
1 22:0.0065215 192:0.0938082 499:0.2238985 775:0.0996578 1234:0.1155075 1235:0.1255075 1236:0.1255075 
1 463:0.0562001 1237:0.1255075 
1 22:0.0065215 59:0.04437 221:0.0676939 970:0.0864386 1238:0.1096578 1239:0.1255075 1240:0.0726534 
1 59:0.04437 693:0.1155075 930:0.0838082 1083:0.0830282 1241:0.1055075 
1 22:0.0065215 279:0.0719319 357:0.0738082 948:0.0582283 1242:0.0885031 1243:0.1255075 1244:0.1055075 1245:0.1255075 
1 22:0.0065215 59:0.04437 108:0.0479586 653:0.0593604 1246:0.1155075 1247:0.1155075 1248:0.1055075 1249:0.0996578 
1 19:0.0317788 46:0.0624697 60:0.0864386 160:0.0996578 161:0.1155075 167:0.0730282 308:0.0549546 1250:0.1255075 1251:0.0955075 1252:0.0974339 1253:0.1255075 1254:0.1255075 
1 22:0.0065215 59:0.04437 108:0.0479586 653:0.0593604 1246:0.1155075 1247:0.1155075 1248:0.1055075 1249:0.0996578 
1 19:0.0317788 146:0.0489254 289:0.0521983 944:0.0922882 1108:0.0473697 1255:0.1055075 1256:0.1255075 1257:0.1096578 
1 22:0.0065215 925:0.0864386 1149:0.0864386 1258:0.1096578 1259:0.1022882 1260:0.1255075 1261:0.1096578 1262:0.1155075 
1 178:0.1335814 179:0.0902366 361:0.0605889 362:0.1971478 363:0.1366918 365:0.0855075 530:0.0730282 650:0.0909132 781:0.0896578 890:0.0909132 1078:0.1022882 1149:0.0864386 1263:0.1255075 1264:0.1255075 1265:0.1255075 1266:0.0498089 
1 19:0.0317788 238:0.0779586 409:0.0885031 785:0.0996578 1267:0.1255075 1268:0.1255075 1269:0.1255075 
1 22:0.0065215 220:0.0802718 299:0.0774339 752:0.1155075 1270:0.1155075 
1 59:0.04437 645:0.0855075 745:0.0746328 829:0.0996578 1271:0.0896578 1272:0.0996578 1273:0.1055075 1274:0.0974339 1275:0.0779586 
1 232:0.0690689 271:0.0682283 372:0.0755075 578:0.0802718 1276:0.1155075 1277:0.1055075 1278:0.1255075 
1 530:0.0730282 948:0.1746848 1148:0.0996578 1279:0.0974339 
1 31:0.0790689 186:0.0696578 1280:0.1155075 1281:0.1255075 
1 59:0.04437 132:0.0885031 442:0.0974339 479:0.0526534 1282:0.0838082 1283:0.0955075 1284:0.1255075 1285:0.1255075 1286:0.1255075 
1 117:0.0938082 199:0.0922882 517:0.0730282 1287:0.1155075 1288:0.1255075 1289:0.0481604 
1 22:0.0130429 279:0.0719319 357:0.0738082 431:0.1096578 585:0.0685031 1290:0.1155075 1291:0.1255075 
1 11:0.0996578 19:0.0317788 22:0.0065215 125:0.0313079 203:0.0785031 238:0.0779586 294:0.0938082 440:0.0922882 479:0.0526534 513:0.0896578 977:0.1055075 1292:0.1055075 1293:0.0955075 1294:0.0955075 1295:0.1055075 1296:0.1022882 1297:0.1096578 
1 177:0.0469277 178:0.0445271 179:0.0451183 180:0.0830282 308:0.0549546 331:0.0750635 400:0.0864386 1298:0.1096578 1299:0.1155075 1300:0.1255075 
1 22:0.0065215 107:0.0601159 125:0.0313079 146:0.0489254 172:0.0730282 248:0.0644222 391:0.06401 651:0.1022882 653:0.0593604 1124:0.1155075 1301:0.1155075 
1 167:0.0730282 357:0.0738082 1302:0.1155075 1303:0.0938082 1304:0.0996578 1305:0.1255075 
1 19:0.0317788 156:0.0846328 271:0.0682283 522:0.1155075 979:0.0709132 1306:0.1155075 1307:0.0996578 1308:0.1096578 1309:0.1255075 
1 22:0.0065215 78:0.0190419 122:0.0425613 146:0.0489254 195:0.1096578 198:0.0570526 415:0.0846328 792:0.0974339 1310:0.1155075 1311:0.1255075 
1 19:0.0317788 22:0.0065215 94:0.0674339 962:0.1022882 1097:0.1022882 1312:0.1155075 1313:0.1055075 
1 22:0.0065215 200:0.0690689 239:0.0730282 245:0.0759655 948:0.0582283 1314:0.0896578 1315:0.0938082 1316:0.1055075 1317:0.0790689 1318:0.1155075 
1 56:0.0624697 59:0.04437 110:0.0679586 271:0.0682283 406:0.0885031 1319:0.1255075 1320:0.0822882 1321:0.1022882 1322:0.1255075 
1 22:0.0065215 59:0.04437 301:0.0815843 302:0.0726534 343:0.0642146 515:0.0996578 1270:0.1155075 
1 19:0.0317788 22:0.0065215 37:0.0746328 56:0.0624697 170:0.0415414 208:0.0938082 371:0.1022882 476:0.0674339 530:0.0730282 781:0.0896578 1274:0.0974339 1323:0.1155075 1324:0.1255075 1325:0.1255075 1326:0.1155075 1327:0.1255075 1328:0.1255075 1329:0.0664386 1330:0.0909132 
1 101:0.0227462 680:0.0802718 1320:0.0822882 1331:0.1255075 
1 221:0.0676939 690:0.0822882 1332:0.1255075 1333:0.1255075 
1 24:0.1055075 59:0.04437 1334:0.1022882 1335:0.1155075 1336:0.1255075 
1 142:0.0746328 260:0.0433158 423:0.0974339 1337:0.0996578 1338:0.1055075 1339:0.1255075 
1 220:0.0802718 952:0.0815843 1340:0.1155075 
1 19:0.0317788 232:0.0690689 372:0.0755075 470:0.0734129 1341:0.0938082 
1 46:0.0624697 146:0.0489254 1064:0.0885031 1120:0.0759655 1121:0.1055075 1342:0.0759655 1343:0.0896578 1344:0.1155075 
1 86:0.0709132 239:0.0730282 746:0.0855075 1223:0.0885031 1345:0.0909132 1346:0.1255075 1347:0.1155075 
1 63:0.0642146 125:0.0313079 146:0.0489254 236:0.0485031 308:0.0549546 321:0.0630282 492:0.1022882 1348:0.1096578 1349:0.0922882 1350:0.1255075 1351:0.0702718 1352:0.1096578 
1 59:0.04437 98:0.0922882 424:0.0938082 455:0.066681 1353:0.0996578 1354:0.1255075 1355:0.1096578 1356:0.0996578 1357:0.0846328 1358:0.1055075 
1 263:0.1676164 546:0.0922882 1359:0.0652838 1360:0.1255075 1361:0.1022882 
1 19:0.0317788 22:0.0065215 294:0.0938082 357:0.0738082 717:0.1155075 1362:0.1255075 1363:0.0377926 1364:0.1255075 
1 20:0.0874339 114:0.0938082 115:0.1096578 146:0.0489254 479:0.0526534 584:0.0644222 689:0.1096578 926:0.0874339 1365:0.1096578 1366:0.0664386 
1 146:0.0489254 235:0.0764386 870:0.0909132 
1 3:0.0815843 14:0.0815843 22:0.0065215 186:0.0696578 1367:0.0896578 1368:0.1055075 
1 73:0.0734129 74:0.0769277 146:0.0489254 186:0.0696578 321:0.0630282 375:0.0664386 1120:0.0759655 1369:0.1155075 1370:0.1096578 
1 19:0.0317788 22:0.0195644 158:0.0715843 160:0.0996578 166:0.0624697 167:0.0730282 513:0.0896578 1043:0.1096578 1044:0.0974339 1045:0.1096578 1046:0.0864386 1047:0.1155075 1048:0.1155075 1049:0.1096578 1050:0.1155075 1051:0.0602718 1371:0.0830282 
1 19:0.0317788 328:0.1022882 400:0.0864386 1298:0.1096578 1372:0.1255075 1373:0.1255075 1374:0.1022882 1375:0.1255075 
1 30:0.0254793 69:0.0996578 146:0.0489254 232:0.0690689 797:0.0996578 847:0.0896578 952:0.0815843 1376:0.1155075 1377:0.0802718 1378:0.0922882 
1 285:0.0874339 1379:0.1255075 1380:0.0885031 1381:0.1255075 1382:0.1255075 
1 177:0.0469277 178:0.0445271 179:0.0451183 180:0.0830282 221:0.0676939 970:0.0864386 1238:0.1096578 1383:0.1022882 
1 31:0.0790689 186:0.0696578 336:0.0815843 1384:0.1055075 1385:0.1055075 1386:0.0996578 
1 22:0.0065215 46:0.0624697 117:0.0938082 343:0.0642146 568:0.0864386 1387:0.1255075 1388:0.0896578 1389:0.1255075 
1 19:0.0317788 101:0.0227462 221:0.0676939 653:0.0593604 746:0.0855075 751:0.0730282 1315:0.0938082 1390:0.0996578 1391:0.1255075 1392:0.0996578 
1 314:0.1096578 621:0.0955075 838:0.1022882 1393:0.0938082 1394:0.1255075 1395:0.1155075 1396:0.1055075 1397:0.0996578 1398:0.1155075 1399:0.1155075 
1 22:0.0065215 30:0.0254793 69:0.0996578 232:0.0690689 797:0.0996578 847:0.0896578 952:0.0815843 1376:0.1155075 1377:0.0802718 1378:0.0922882 
1 146:0.0489254 172:0.0730282 431:0.1096578 1400:0.0996578 1401:0.1096578 1402:0.1055075 
1 236:0.0485031 640:0.0896578 1144:0.0864386 1403:0.0802718 1404:0.0955075 1405:0.1255075 
1 19:0.0317788 221:0.0676939 502:0.0671786 746:0.0855075 1315:0.0938082 1390:0.0996578 1406:0.1096578 
1 8:0.0719319 22:0.0130429 74:0.1538553 108:0.0479586 158:0.1431686 254:0.0830282 275:0.036529 479:0.0526534 513:0.0896578 1129:0.1096578 1407:0.1255075 1408:0.1255075 1409:0.1155075 1410:0.0909132 1411:0.1155075 1412:0.0864386 1413:0.1255075 
1 22:0.0065215 343:0.0642146 720:0.0909132 818:0.0896578 820:0.1022882 1388:0.0896578 1414:0.1096578 1415:0.1255075 1416:0.1022882 
1 1417:0.1022882 1418:0.1055075 1419:0.1255075 1420:0.1255075 1421:0.1255075 
1 78:0.0190419 237:0.0909132 485:0.0909132 1422:0.1055075 1423:0.0634129 1424:0.1055075 
1 19:0.0317788 22:0.0065215 56:0.0624697 227:0.0796578 415:0.0846328 578:0.0802718 729:0.0909132 745:0.0746328 1274:0.0974339 1425:0.1096578 
1 78:0.0190419 751:0.0730282 1417:0.1022882 1426:0.1096578 1427:0.1155075 1428:0.1155075 
1 22:0.0065215 221:0.0676939 230:0.0885031 745:0.0746328 746:0.0855075 802:0.0802718 1429:0.1255075 1430:0.0885031 
1 122:0.0851225 546:0.0922882 1374:0.1022882 1431:0.0996578 1432:0.0938082 
1 19:0.0317788 22:0.0065215 1433:0.1022882 1434:0.0955075 1435:0.1155075 1436:0.0779586 1437:0.1055075 
1 19:0.0317788 70:0.0759655 102:0.0955075 221:0.0676939 302:0.0726534 746:0.0855075 1315:0.0938082 1438:0.1255075 
1 22:0.0065215 506:0.0755075 582:0.1022882 754:0.0896578 781:0.0896578 1436:0.0779586 1437:0.1055075 1439:0.1155075 1440:0.0815843 1441:0.1055075 
1 22:0.0065215 351:0.0955075 415:0.0846328 745:0.0746328 1442:0.1055075 1443:0.1255075 
1 312:0.0909132 817:0.0996578 1444:0.1096578 1445:0.1055075 
1 212:0.0674339 344:0.0531234 662:0.0734129 823:0.0864386 1433:0.1022882 1446:0.1255075 1447:0.1255075 1448:0.0846328 
1 19:0.0317788 22:0.0130429 321:0.0630282 1090:0.1155075 1343:0.0896578 1449:0.1155075 1450:0.1096578 1451:0.0830282 1452:0.1096578 1453:0.1255075 1454:0.1255075 1455:0.1255075 1456:0.1255075 1457:0.1255075 
1 146:0.0489254 221:0.0676939 1053:0.1055075 1054:0.1155075 1458:0.0974339 1459:0.1022882 
1 196:0.1748678 499:0.2238985 619:0.0922882 869:0.0955075 1123:0.1096578 
1 73:0.0734129 74:0.0769277 645:0.0855075 904:0.1022882 905:0.0922882 1460:0.1055075 1461:0.1055075 
1 78:0.0190419 146:0.0489254 680:0.0802718 1289:0.0481604 1462:0.1022882 1463:0.1096578 
1 19:0.0317788 25:0.1022882 156:0.0846328 158:0.0715843 459:0.0996578 1464:0.1155075 1465:0.1096578 
1 8:0.0719319 9:0.0874339 54:0.1155075 78:0.0190419 193:0.0974339 299:0.0774339 883:0.0996578 1466:0.1055075 
1 8:0.0719319 138:0.0955075 220:0.0802718 499:0.0746328 707:0.0938082 816:0.0456206 1218:0.0996578 1467:0.0709132 1468:0.1055075 
1 8:0.0719319 9:0.0874339 221:0.0676939 245:0.0759655 746:0.0855075 1469:0.1155075 
1 8:0.0719319 101:0.0227462 449:0.0938082 680:0.1605437 745:0.0746328 829:0.0996578 1470:0.1255075 
1 167:0.0730282 344:0.0531234 654:0.0764386 909:0.0922882 910:0.1096578 956:0.0996578 
1 19:0.0317788 22:0.0130429 110:0.0679586 238:0.0779586 653:0.0593604 829:0.0996578 1041:0.0922882 1471:0.0938082 1472:0.1255075 
1 146:0.0489254 640:0.0896578 676:0.0769277 704:0.0738082 1120:0.0759655 1121:0.1055075 1473:0.1022882 1474:0.1255075 1475:0.1022882 
1 146:0.0489254 162:0.0838082 186:0.0696578 331:0.0750635 434:0.1022882 1476:0.1255075 1477:0.0938082 
1 46:0.0624697 160:0.0996578 164:0.1022882 167:0.0730282 479:0.0526534 506:0.0755075 1049:0.1096578 1051:0.0602718 1252:0.0974339 1478:0.1255075 1479:0.2510149 1480:0.1022882 1481:0.0864386 1482:0.1255075 
1 162:0.0838082 579:0.1022882 690:0.0822882 1483:0.1255075 1484:0.1055075 1485:0.1096578 
1 172:0.0730282 230:0.0885031 231:0.0838082 1298:0.1096578 1486:0.1096578 1487:0.1055075 
1 19:0.0317788 58:0.0909132 557:0.0822882 1488:0.0790689 1489:0.1255075 1490:0.1255075 
1 146:0.0489254 156:0.0846328 162:0.0838082 374:0.0830282 1491:0.1155075 1492:0.0815843 
1 167:0.0730282 183:0.0609132 909:0.0922882 910:0.1096578 911:0.1155075 
1 125:0.0313079 372:0.0755075 391:0.06401 1493:0.0630282 1494:0.0864386 
1 308:0.0549546 317:0.0846328 1495:0.1255075 1496:0.1255075 1497:0.0885031 
1 22:0.0130429 158:0.0715843 279:0.0719319 357:0.0738082 651:0.1022882 1498:0.1155075 1499:0.0955075 1500:0.1022882 1501:0.1055075 
1 167:0.0730282 347:0.1548678 622:0.0838082 676:0.0769277 1502:0.1255075 1503:0.0974339 
1 30:0.0254793 87:0.0974339 88:0.0922882 481:0.0759655 718:0.0662001 976:0.1096578 
1 22:0.0130429 24:0.1055075 146:0.0489254 170:0.0415414 227:0.0796578 614:0.0607501 773:0.1055075 1316:0.1055075 1504:0.1255075 
1 196:0.1748678 245:0.0759655 372:0.0755075 375:0.0664386 1505:0.1155075 
1 22:0.0065215 134:0.0693604 151:0.0580928 399:0.0996578 400:0.0864386 402:0.0996578 1452:0.1096578 1506:0.0974339 1507:0.1055075 
1 22:0.0326073 27:0.1155075 28:0.0974339 29:0.1155075 32:0.0482965 33:0.0864386 175:0.0796578 499:0.0746328 607:0.0830282 1083:0.0830282 1508:0.1096578 1509:0.1096578 1510:0.1055075 1511:0.1096578 1512:0.1255075 1513:0.0779586 1514:0.2510149 1515:0.2310149 
1 146:0.0489254 221:0.0676939 1516:0.1096578 1517:0.0705889 1518:0.0864386 
1 56:0.0624697 196:0.0874339 416:0.0938082 1272:0.0996578 1273:0.1055075 1519:0.1096578 
1 19:0.0317788 37:0.0746328 110:0.0679586 167:0.0730282 308:0.0549546 479:0.0526534 718:0.0662001 835:0.0655075 1345:0.0909132 1520:0.1255075 1521:0.1155075 1522:0.1255075 1523:0.1255075 
1 19:0.0317788 146:0.0489254 183:0.0609132 199:0.0922882 257:0.0896578 869:0.0955075 930:0.0838082 1524:0.1255075 1525:0.0996578 1526:0.0974339 1527:0.1948678 
1 6:0.0477596 8:0.0719319 616:0.1055075 1218:0.0996578 1528:0.1022882 1529:0.0802718 
1 107:0.0601159 343:0.0642146 881:0.0730282 1530:0.0974339 
1 32:0.0482965 167:0.0730282 328:0.1022882 557:0.0822882 724:0.1096578 1385:0.1055075 1531:0.1155075 
1 172:0.0730282 415:0.0846328 464:0.0785031 745:0.0746328 826:0.0830282 1532:0.1255075 
1 137:0.0634129 360:0.0738082 505:0.1055075 662:0.0734129 930:0.0838082 1085:0.1022882 1533:0.0938082 1534:0.1155075 1535:0.1155075 
1 172:0.0730282 781:0.0896578 890:0.0909132 1536:0.1255075 1537:0.1255075 1538:0.1096578 1539:0.1255075 
1 16:0.0922882 30:0.0254793 56:0.0624697 137:0.0634129 146:0.0489254 930:0.0838082 1142:0.0595083 1533:0.0938082 1540:0.0974339 1541:0.1055075 1542:0.1155075 
1 186:0.0696578 376:0.0955075 848:0.0922882 1543:0.1255075 
1 199:0.0922882 797:0.0996578 1544:0.1255075 1545:0.0955075 
1 6:0.0477596 317:0.0846328 336:0.0815843 337:0.0896578 807:0.0938082 1546:0.1255075 1547:0.1155075 
1 3:0.0815843 146:0.0489254 221:0.0676939 619:0.0922882 707:0.0938082 1444:0.1096578 1548:0.1255075 1549:0.1055075 
1 19:0.0317788 146:0.0489254 1550:0.1055075 1551:0.1155075 1552:0.0996578 1553:0.1022882 1554:0.0885031 1555:0.1055075 1556:0.1155075 1557:0.1255075 
1 59:0.04437 221:0.0676939 707:0.0938082 1558:0.1055075 1559:0.1255075 1560:0.1055075 
1 146:0.0489254 287:0.0974339 321:0.0630282 729:0.0909132 1561:0.1255075 1562:0.0938082 1563:0.1022882 1564:0.1155075 1565:0.0938082 1566:0.1155075 
1 19:0.0317788 46:0.0624697 232:0.0690689 372:0.0755075 916:0.1055075 1567:0.0996578 1568:0.0974339 1569:0.1022882 
1 220:0.0802718 274:0.0974339 704:0.0738082 1570:0.1255075 1571:0.1155075 
1 19:0.0317788 232:0.0690689 372:0.0755075 916:0.1055075 1567:0.0996578 1572:0.0955075 
1 19:0.0317788 137:0.0634129 930:0.0838082 1142:0.0595083 1540:0.0974339 1573:0.1055075 
1 46:0.0624697 170:0.0415414 186:0.0696578 225:0.0855075 226:0.0746328 848:0.0922882 1224:0.1022882 1574:0.1055075 
1 6:0.0477596 193:0.0974339 194:0.0809132 236:0.0485031 297:0.1096578 883:0.0996578 1575:0.1155075 1576:0.0996578 
1 146:0.0489254 560:0.0809132 1004:0.0874339 1551:0.1155075 1552:0.0996578 1553:0.1022882 1577:0.0864386 1578:0.0955075 
1 22:0.0065215 59:0.04437 146:0.0489254 239:0.0730282 299:0.1548678 1087:0.1096578 1579:0.1255075 1580:0.1255075 1581:0.1255075 
1 19:0.0317788 631:0.0874339 757:0.0734129 1122:0.1155075 1582:0.1255075 1583:0.1255075 
1 221:0.0676939 230:0.0885031 587:0.0709132 748:0.0896578 1584:0.1255075 1585:0.1255075 1586:0.1255075 1587:0.1155075 
1 1051:0.0602718 1588:0.1022882 1589:0.1096578 1590:0.1022882 1591:0.0796578 1592:0.1255075 
1 186:0.0696578 312:0.0909132 1152:0.0955075 1593:0.1255075 
1 22:0.0065215 415:0.0846328 552:0.1055075 553:0.0764386 729:0.0909132 1275:0.0779586 1594:0.1255075 1595:0.1096578 1596:0.1255075 1597:0.1096578 
1 19:0.0317788 232:0.0690689 372:0.0755075 1144:0.0864386 1567:0.0996578 1598:0.1155075 1599:0.0822882 
1 19:0.0317788 22:0.0130429 28:0.0974339 385:0.0974339 411:0.1155075 1600:0.1255075 1601:0.1255075 1602:0.0922882 
1 3:0.0815843 221:0.0676939 707:0.0938082 1444:0.1096578 1558:0.1055075 
1 19:0.0317788 232:0.0690689 372:0.0755075 1144:0.0864386 1567:0.0996578 1599:0.0822882 1603:0.1155075 
1 146:0.0489254 176:0.0779586 1552:0.0996578 1553:0.1022882 1604:0.1255075 1605:0.1155075 1606:0.1255075 1607:0.1255075 
1 19:0.0317788 30:0.0254793 232:0.0690689 372:0.0755075 751:0.0730282 957:0.1055075 1608:0.1255075 
1 59:0.04437 78:0.0380838 132:0.0885031 479:0.0526534 1016:0.0996578 1609:0.1155075 1610:0.1255075 1611:0.1255075 
1 53:0.0809132 207:0.0815843 322:0.0909132 622:0.0838082 1303:0.0938082 1612:0.1631686 1613:0.1155075 1614:0.1055075 1615:0.1022882 1616:0.1055075 1617:0.1255075 1618:0.1255075 
1 8:0.0719319 463:0.0562001 680:0.0802718 1218:0.0996578 1329:0.0664386 
1 19:0.0317788 1148:0.0996578 1550:0.1055075 1552:0.0996578 1553:0.1022882 1556:0.1155075 1619:0.1155075 
1 146:0.0489254 223:0.0874339 1343:0.0896578 1620:0.1022882 1621:0.1255075 1622:0.1255075 1623:0.1155075 1624:0.0769277 
1 14:0.0815843 463:0.0562001 926:0.0874339 934:0.0755075 1149:0.0864386 1442:0.1055075 1558:0.1055075 1625:0.0838082 
1 22:0.0065215 156:0.0846328 177:0.0469277 178:0.0445271 179:0.0451183 180:0.0830282 299:0.0774339 984:0.0938082 1296:0.1022882 1626:0.1055075 1627:0.1096578 
1 146:0.0489254 525:0.1022882 1628:0.0709132 1629:0.1255075 1630:0.1255075 1631:0.1255075 
1 146:0.0489254 162:0.0838082 238:0.0779586 239:0.0730282 1632:0.1096578 1633:0.0809132 1634:0.1255075 
1 14:0.0815843 174:0.0855075 289:0.0521983 1635:0.0974339 1636:0.1096578 
1 19:0.0317788 232:0.0690689 321:0.0630282 372:0.0755075 584:0.0644222 926:0.0874339 1637:0.0885031 1638:0.1155075 
1 146:0.0489254 183:0.0609132 598:0.1055075 1272:0.0996578 1273:0.1055075 
1 203:0.0785031 225:0.0855075 380:0.0974339 384:0.1022882 619:0.0922882 1384:0.1055075 1639:0.0974339 1640:0.1255075 1641:0.1155075 1642:0.1022882 
1 19:0.0317788 232:0.0690689 1555:0.1055075 1643:0.1155075 1644:0.0619319 1645:0.1255075 
1 78:0.0190419 86:0.0709132 621:0.0955075 1646:0.0922882 1647:0.0955075 1648:0.1096578 1649:0.1255075 
1 73:0.0734129 74:0.0769277 186:0.0696578 804:0.1022882 977:0.1055075 1650:0.1055075 1651:0.1255075 1652:0.0996578 
1 220:0.0802718 1486:0.1096578 1653:0.1155075 1654:0.0896578 1655:0.0996578 
1 19:0.0317788 56:0.0624697 78:0.0190419 101:0.0227462 125:0.0313079 308:0.0549546 1656:0.1255075 1657:0.0974339 1658:0.0974339 
1 22:0.0065215 108:0.0479586 236:0.0485031 357:0.0738082 650:0.0909132 1190:0.0846328 1659:0.1255075 1660:0.1096578 1661:0.0974339 1662:0.1155075 
1 19:0.0317788 146:0.0489254 221:0.0676939 645:0.0855075 690:0.0822882 830:0.1096578 1274:0.0974339 1506:0.0974339 1663:0.1055075 
1 59:0.04437 186:0.0696578 225:0.0855075 226:0.0746328 237:0.0909132 682:0.0974339 1664:0.1055075 1665:0.0974339 1666:0.1022882 1667:0.1055075 1668:0.1255075 
1 6:0.0477596 1669:0.1255075 1670:0.1255075 1671:0.1055075 1672:0.1255075 1673:0.1255075 
1 56:0.0624697 177:0.0469277 178:0.0445271 179:0.0451183 180:0.0830282 220:0.0802718 1486:0.1096578 1654:0.0896578 1674:0.1155075 
1 22:0.0130429 200:0.0690689 201:0.0796578 202:0.1022882 203:0.0785031 204:0.1155075 205:0.1155075 206:0.1155075 207:0.0815843 208:0.0938082 209:0.2310149 1675:0.2510149 
1 30:0.0254793 56:0.0624697 697:0.0955075 1111:0.0955075 1676:0.1255075 1677:0.1155075 1678:0.1155075 1679:0.0996578 
1 19:0.0317788 25:0.1022882 385:0.0974339 621:0.0955075 1680:0.0996578 1681:0.1155075 1682:0.1255075 
1 6:0.0477596 220:0.0802718 1431:0.0996578 1667:0.1055075 1683:0.1096578 
1 19:0.0317788 22:0.0130429 110:0.0679586 155:0.1022882 156:0.0846328 964:0.0685031 1051:0.0602718 1252:0.0974339 1481:0.0864386 1488:0.0790689 1684:0.1096578 1685:0.1096578 1686:0.1255075 1687:0.1255075 1688:0.1255075 1689:0.1022882 1690:0.0996578 1691:0.0438082 1692:0.1255075 
1 22:0.0065215 30:0.0254793 142:0.0746328 582:0.1022882 754:0.0896578 1345:0.0909132 1488:0.0790689 1693:0.0996578 1694:0.1255075 1695:0.0896578 1696:0.1022882 1697:0.0809132 
1 19:0.0317788 114:0.0938082 220:0.0802718 1698:0.1055075 
1 169:0.0500385 220:0.0802718 645:0.0855075 1274:0.0974339 1699:0.1255075 1700:0.1155075 
1 542:0.0726534 566:0.1055075 607:0.0830282 1701:0.1022882 1702:0.0996578 
1 22:0.0065215 30:0.0254793 108:0.0479586 321:0.0630282 491:0.0974339 582:0.1022882 754:0.0896578 1696:0.1022882 1703:0.1255075 1704:0.1255075 1705:0.1255075 
1 130:0.0769277 140:0.0922882 1706:0.1255075 1707:0.1055075 1708:0.0864386 1709:0.0974339 
1 78:0.0190419 182:0.0955075 184:0.0815843 385:0.0974339 455:0.066681 585:0.0685031 631:0.0874339 1710:0.0846328 
1 137:0.0634129 221:0.0676939 1158:0.0874339 1683:0.1096578 1711:0.0855075 
1 146:0.0489254 248:0.0644222 438:0.1055075 546:0.0922882 1529:0.0802718 1712:0.1255075 1713:0.1255075 
1 114:0.0938082 220:0.0802718 1698:0.1055075 1714:0.1022882 
1 137:0.0634129 220:0.0802718 1158:0.0874339 1683:0.1096578 1711:0.0855075 
1 73:0.0734129 74:0.0769277 196:0.0874339 455:0.066681 479:0.0526534 635:0.0974339 804:0.1022882 1178:0.0909132 1715:0.1155075 1716:0.1155075 1717:0.1155075 
1 6:0.0477596 19:0.0317788 59:0.04437 212:0.0674339 237:0.0909132 881:0.0730282 1718:0.1155075 1719:0.1255075 1720:0.1255075 1721:0.1255075 1722:0.1255075 
1 3:0.0815843 56:0.0624697 221:0.0676939 227:0.0796578 1647:0.0955075 
1 5:0.0955075 146:0.0489254 198:0.0570526 237:0.0909132 263:0.0838082 412:0.0909132 1647:0.0955075 1723:0.0885031 1724:0.0855075 
1 1223:0.0885031 1238:0.1096578 1242:0.0885031 1725:0.0955075 1726:0.0974339 
1 59:0.04437 221:0.0676939 801:0.1096578 802:0.0802718 1434:0.0955075 1727:0.0974339 1728:0.1255075 1729:0.1155075 1730:0.1255075 
1 140:0.0922882 146:0.0489254 399:0.0996578 530:0.0730282 1120:0.0759655 1343:0.0896578 1731:0.1255075 
1 680:0.0802718 1143:0.1155075 1732:0.0533158 1733:0.1255075 1734:0.1255075 
1 114:0.0938082 220:0.0802718 1698:0.1055075 1714:0.1022882 
1 14:0.0815843 311:0.0846328 609:0.0909132 653:0.0593604 1565:0.0938082 
1 58:0.0909132 108:0.0479586 800:0.0822882 1709:0.0974339 
1 9:0.0874339 279:0.0719319 1024:0.0996578 1735:0.1096578 1736:0.0996578 
1 22:0.0065215 239:0.0730282 442:0.0974339 509:0.1096578 510:0.1055075 1689:0.1022882 1737:0.1096578 1738:0.0764386 1739:0.1096578 
1 22:0.0065215 239:0.0730282 442:0.0974339 509:0.1096578 510:0.1055075 1689:0.1022882 1737:0.1096578 1738:0.0764386 1739:0.1096578 
1 19:0.0635576 22:0.0130429 94:0.0674339 108:0.0479586 146:0.0489254 1219:0.1692657 1740:0.1255075 
1 30:0.0254793 232:0.0690689 372:0.0755075 957:0.1055075 1741:0.0974339 1742:0.1255075 1743:0.0896578 
1 9:0.0874339 22:0.0130429 46:0.0624697 1425:0.1096578 1450:0.1096578 1451:0.0830282 1452:0.1096578 1744:0.1255075 1745:0.1096578 1746:0.1255075 
1 1095:0.0838082 1183:0.0846328 1747:0.1022882 1748:0.1255075 1749:0.1096578 1750:0.1096578 
1 181:0.0785031 305:0.1022882 306:0.0996578 1351:0.0702718 1751:0.1055075 
1 110:0.0679586 590:0.1096578 629:0.1096578 1752:0.1022882 1753:0.1155075 
1 14:0.0815843 199:0.0922882 245:0.0759655 327:0.1055075 607:0.0830282 1754:0.0909132 1755:0.1155075 
1 19:0.0317788 39:0.0864386 558:0.0796578 1089:0.0709132 1492:0.0815843 1756:0.1255075 1757:0.0846328 1758:0.1255075 
1 78:0.0190419 184:0.0815843 385:0.0974339 455:0.066681 585:0.0685031 631:0.0874339 1759:0.1255075 
1 680:0.0802718 682:0.0974339 1506:0.0974339 1511:0.1096578 1760:0.1055075 1761:0.1255075 1762:0.1155075 
1 6:0.0477596 304:0.0922882 546:0.0922882 1763:0.1155075 1764:0.1022882 1765:0.1255075 1766:0.1155075 
1 146:0.0489254 200:0.0690689 331:0.0750635 343:0.0642146 506:0.0755075 1767:0.1255075 1768:0.1155075 
1 1064:0.0885031 1210:0.1022882 1644:0.0619319 1769:0.1096578 1770:0.1022882 1771:0.0996578 1772:0.0696578 1773:0.0830282 
1 1178:0.0909132 1378:0.0922882 1774:0.1255075 1775:0.1255075 1776:0.1255075 1777:0.1255075 
1 59:0.04437 186:0.0696578 225:0.0855075 226:0.0746328 1224:0.1022882 1497:0.0885031 1778:0.1255075 
1 146:0.0489254 232:0.0690689 690:0.0822882 1108:0.0473697 1192:0.0955075 1493:0.0630282 1779:0.0996578 1780:0.0909132 1781:0.0974339 1782:0.1255075 
1 186:0.0696578 385:0.0974339 987:0.0974339 1783:0.1255075 1784:0.1255075 1785:0.1055075 
1 343:0.0642146 415:0.0846328 416:0.0938082 444:0.0664386 826:0.0830282 1786:0.1055075 1787:0.1255075 
1 479:0.0526534 653:0.0593604 877:0.0955075 1111:0.0955075 1131:0.0790689 1788:0.1255075 1789:0.0974339 1790:0.1255075 
1 82:0.0922882 146:0.0489254 257:0.1793157 784:0.1096578 869:0.0955075 1525:0.0996578 1526:0.0974339 1791:0.1055075 
1 146:0.0489254 170:0.0415414 751:0.0730282 955:0.0974339 1792:0.0604295 1793:0.1022882 1794:0.1255075 1795:0.1055075 1796:0.1055075 1797:0.1155075 
1 22:0.0065215 279:0.0719319 308:0.0549546 357:0.0738082 519:0.0974339 1198:0.1022882 1494:0.0864386 1798:0.1255075 1799:0.1255075 
1 22:0.0065215 39:0.0864386 357:0.0738082 558:0.0796578 1192:0.0955075 1402:0.1055075 1800:0.0996578 
1 19:0.0317788 22:0.0065215 46:0.0624697 177:0.0469277 178:0.0445271 179:0.0451183 180:0.0830282 344:0.0531234 1792:0.0604295 1801:0.1155075 1802:0.0896578 1803:0.1255075 
1 126:0.0726534 146:0.0489254 236:0.0485031 585:0.0685031 587:0.0709132 1105:0.1055075 1804:0.1155075 
1 649:0.0846328 1805:0.1255075 1806:0.1155075 1807:0.1255075 1808:0.0576939 1809:0.0896578 
1 19:0.0317788 146:0.0489254 506:0.0755075 546:0.0922882 1810:0.1255075 1811:0.1255075 1812:0.1155075 1813:0.1096578 
1 22:0.0065215 56:0.0624697 58:0.0909132 146:0.0489254 357:0.0738082 484:0.0955075 485:0.0909132 1271:0.0896578 1814:0.1255075 
1 114:0.0938082 220:0.0802718 1698:0.1055075 1714:0.1022882 
1 19:0.0317788 22:0.0065215 94:0.0674339 176:0.0779586 795:0.0974339 1111:0.0955075 1374:0.1022882 1815:0.1255075 1816:0.1155075 1817:0.1055075 
1 5:0.0955075 183:0.0609132 1217:0.1155075 1818:0.1255075 1819:0.1255075 
1 22:0.0260858 78:0.0190419 101:0.0227462 108:0.0479586 151:0.0580928 158:0.0715843 253:0.0473697 275:0.036529 698:0.0664386 704:0.0738082 1094:0.1055075 1289:0.0481604 1732:0.0533158 1820:0.1155075 1821:0.1155075 1822:0.0385726 1823:0.1255075 1824:0.1055075 1825:0.1255075 
1 19:0.0317788 22:0.0195644 78:0.0190419 236:0.0485031 670:0.0864386 894:0.0628396 1363:0.0377926 1423:0.0634129 1625:0.0838082 1826:0.1255075 1827:0.0864386 1828:0.1993157 1829:0.0996578 1830:0.1096578 1831:0.0759655 
1 22:0.0326073 253:0.0473697 275:0.036529 343:0.1284293 1832:0.0522882 1833:0.0624697 1834:0.031888 1835:0.1255075 
1 22:0.0065215 170:0.0415414 1363:0.0377926 1836:0.0922882 1837:0.0996578 1838:0.1255075 1839:0.1096578 1840:0.0682283 
1 22:0.0260858 49:0.0702718 169:0.0500385 736:0.0822882 1037:0.0938082 1841:0.0452838 1842:0.1096578 1843:0.0513289 1844:0.1255075 1845:0.0471154 1846:0.0790689 1847:0.1255075 1848:0.0909132 
1 6:0.0477596 22:0.0065215 46:0.0624697 207:0.0815843 1182:0.1155075 1289:0.0481604 1834:0.031888 1849:0.0974339 1850:0.0676939 1851:0.0885031 1852:0.0955075 1853:0.1255075 
1 22:0.0260858 177:0.140783 178:0.2226357 179:0.0451183 210:0.0949969 253:0.0473697 362:0.0492869 363:0.1822557 364:0.1432788 488:0.0632193 1266:0.0498089 1834:0.031888 1854:0.0630282 1855:0.1022882 1856:0.1022882 1857:0.0568038 1858:0.0696578 1859:0.0696578 1860:0.1096578 1861:0.1255075 
1 22:0.0130429 210:0.0474985 463:0.0562001 1862:0.1618263 1863:0.1845764 
1 22:0.0130429 268:0.0687832 1864:0.0838082 1865:0.1096578 
1 22:0.0130429 253:0.0473697 463:0.0562001 1732:0.0533158 1862:0.1618263 1866:0.0785031 
1 22:0.0065215 1832:0.0522882 1834:0.031888 
1 22:0.0065215 443:0.0885031 1467:0.0709132 1488:0.0790689 1832:0.0522882 1834:0.0637761 1867:0.0682283 1868:0.1255075 1869:0.0779586 1870:0.1055075 
1 22:0.0195644 78:0.0190419 275:0.036529 289:0.0521983 308:0.0549546 530:0.0730282 1841:0.0452838 1846:0.0790689 1852:0.0955075 1871:0.0699616 1872:0.0864386 1873:0.0276121 1874:0.0809132 
1 22:0.0065215 35:0.0838082 105:0.0864386 184:0.0815843 479:0.0526534 1822:0.0385726 1875:0.1845764 1876:0.1255075 1877:0.1255075 1878:0.3165224 1879:0.0996578 1880:0.0974339 1881:0.1096578 1882:0.1255075 1883:0.1022882 1884:0.0709132 1885:0.1255075 1886:0.0885031 1887:0.0846328 1888:0.1255075 
1 22:0.0391287 101:0.0227462 151:0.0580928 200:0.1381378 268:0.0687832 488:0.0632193 1025:0.0477596 1889:0.2510149 1890:0.1022882 1891:0.1255075 1892:0.1096578 1893:0.0750635 1894:0.1255075 
1 22:0.0260858 45:0.0650635 101:0.0227462 125:0.0313079 219:0.0605889 272:0.0638082 816:0.0456206 1493:0.0630282 1691:0.0438082 1873:0.0276121 1895:0.151931 1896:0.0455075 1897:0.1255075 1898:0.1255075 1899:0.1155075 1900:0.1255075 1901:0.1155075 1902:0.1055075 1903:0.0838082 
1 22:0.0195644 170:0.0415414 344:0.0531234 444:0.0664386 584:0.0644222 1832:0.0522882 1862:0.0809132 1904:0.0779586 1905:0.0457347 1906:0.0996578 1907:0.1255075 
1 19:0.0317788 22:0.0065215 101:0.0227462 125:0.0313079 158:0.0715843 232:0.0690689 686:0.0938082 739:0.1022882 931:0.0796578 1118:0.1155075 1691:0.0438082 1723:0.0885031 1908:0.1255075 1909:0.1255075 1910:0.1255075 1911:0.1255075 1912:0.0955075 1913:0.1338553 1914:0.1022882 1915:0.1255075 1916:0.0922882 
1 22:0.0326073 170:0.0415414 1142:0.0595083 1329:0.1328771 1691:0.0438082 1833:0.0624697 1834:0.031888 1917:0.0497332 1918:0.0955075 1919:0.1710149 1920:0.1096578 
1 6:0.0477596 22:0.0195644 141:0.1055075 1079:0.0669277 1223:0.0885031 1852:0.0955075 1854:0.0630282 1921:0.1255075 1922:0.0659655 1923:0.0996578 1924:0.1255075 
1 22:0.0065215 78:0.0190419 453:0.0938082 680:0.0802718 757:0.0734129 860:0.1055075 1642:0.1022882 
1 19:0.0317788 22:0.0065215 49:0.0702718 59:0.04437 125:0.0313079 170:0.0415414 757:0.0734129 1363:0.0377926 1691:0.0438082 1925:0.2110149 1926:0.1055075 1927:0.1255075 1928:0.1255075 1929:0.1055075 1930:0.1255075 
1 19:0.0317788 22:0.0195644 101:0.0227462 366:0.0685031 470:0.0734129 810:0.1710149 1025:0.0955192 1330:0.0909132 1366:0.0664386 1931:0.0996578 1932:0.0444746 1933:0.1155075 1934:0.0822882 1935:0.1022882 
1 4:0.044686 22:0.0130429 170:0.0415414 260:0.0433158 344:0.0531234 1351:0.0702718 1359:0.0652838 1708:0.0864386 1936:0.0864386 1937:0.1155075 
1 22:0.0130429 78:0.0190419 125:0.0313079 200:0.0690689 260:0.0433158 413:0.1055075 1938:0.1155075 1939:0.0280423 1940:0.0802718 1941:0.2193157 
1 22:0.0195644 210:0.0474985 894:0.0628396 1732:0.0533158 1795:0.1055075 1942:0.0974339 1943:0.0864386 1944:0.1255075 1945:0.061078 1946:0.1255075 1947:0.0609132 
1 22:0.0130429 33:0.0864386 216:0.0682283 566:0.1055075 1757:0.0846328 1948:0.0938082 1949:0.0896578 
1 22:0.0195644 59:0.0887401 125:0.0313079 308:0.0549546 348:0.0896578 359:0.0699616 360:0.0738082 1079:0.0669277 1120:0.0759655 1834:0.031888 1950:0.1155075 1951:0.1255075 1952:0.1096578 1953:0.1155075 1954:0.0644222 1955:0.1155075 
1 6:0.0477596 22:0.0130429 444:0.0664386 1142:0.0595083 1917:0.0497332 
1 6:0.0477596 22:0.0195644 444:0.0664386 1142:0.0595083 1917:0.0497332 
1 21:0.0909132 22:0.0065215 125:0.0313079 145:0.1055075 455:0.066681 529:0.0855075 1754:0.0909132 1956:0.1255075 1957:0.1155075 1958:0.1948678 1959:0.0922882 1960:0.1155075 1961:0.0909132 1962:0.1155075 1963:0.0719319 
1 21:0.0909132 22:0.0065215 125:0.0313079 212:0.0674339 879:0.1155075 1044:0.0974339 1187:0.0636092 1964:0.2510149 1965:0.0652838 1966:0.1255075 1967:0.1255075 1968:0.0996578 1969:0.1255075 1970:0.1255075 1971:0.1255075 
1 9:0.0874339 19:0.0317788 21:0.0909132 22:0.0130429 56:0.0624697 125:0.0313079 704:0.0738082 1464:0.1155075 1553:0.1022882 1972:0.1255075 1973:0.1022882 1974:0.1096578 1975:0.1155075 1976:0.1096578 
1 19:0.0317788 22:0.0065215 1126:0.0996578 1977:0.1155075 1978:0.1155075 1979:0.1255075 
1 183:0.0609132 225:0.0855075 558:0.0796578 965:0.0996578 1980:0.1096578 
1 19:0.0317788 22:0.0065215 74:0.0769277 238:0.0779586 409:0.0885031 785:0.0996578 1981:0.1155075 1982:0.0996578 
1 97:0.1155075 181:0.0785031 994:0.1055075 1983:0.1255075 
1 19:0.0317788 58:0.0909132 680:0.0802718 781:0.0896578 890:0.0909132 1984:0.1055075 1985:0.0955075 1986:0.0955075 
1 19:0.0317788 22:0.0195644 58:0.0909132 680:0.0802718 781:0.0896578 890:0.0909132 1984:0.1055075 1985:0.0955075 1986:0.0955075 
1 296:0.0922882 536:0.0955075 568:0.0864386 584:0.0644222 750:0.1055075 774:0.0909132 1367:0.0896578 1959:0.0922882 
1 22:0.0065215 279:0.0719319 357:0.0738082 461:0.1022882 534:0.0922882 1987:0.1022882 1988:0.1022882 1989:0.1096578 
1 609:0.0909132 1378:0.0922882 1493:0.0630282 1973:0.1022882 1990:0.0785031 1991:0.1155075 
1 53:0.0809132 60:0.0864386 177:0.0469277 178:0.0445271 179:0.0451183 180:0.0830282 362:0.0492869 363:0.0455639 364:0.0477596 948:0.0582283 1747:0.1022882 1992:0.1055075 1993:0.0955075 1994:0.1096578 1995:0.0544222 
1 19:0.0317788 59:0.04437 94:0.0674339 146:0.0489254 1846:0.0790689 1996:0.1155075 1997:0.2310149 1998:0.1096578 
1 19:0.0635576 60:0.0864386 308:0.0549546 344:0.0531234 1044:0.0974339 1079:0.0669277 1080:0.1055075 1081:0.1096578 1082:0.1096578 
1 19:0.0317788 22:0.0130429 108:0.0479586 391:0.06401 476:0.0674339 964:0.0685031 1184:0.0938082 1371:0.0830282 1999:0.066681 2000:0.0830282 2001:0.0612448 
1 19:0.0317788 22:0.0130429 101:0.0227462 125:0.0626157 816:0.0456206 1832:0.0522882 1834:0.031888 2002:0.0997701 2003:0.0955075 2004:0.1155075 
1 22:0.0130429 108:0.0479586 125:0.0313079 239:0.0730282 253:0.0947393 265:0.058365 926:0.0874339 1657:0.0974339 1732:0.0533158 1834:0.031888 2002:0.049885 2005:0.0909132 2006:0.0632193 2007:0.1155075 2008:0.0922882 2009:0.1096578 2010:0.1155075 2011:0.1022882 
1 22:0.0065215 101:0.0227462 260:0.0433158 1271:0.0896578 1554:0.0885031 2001:0.0612448 2012:0.0482283 2013:0.0974339 
1 22:0.0065215 101:0.0227462 125:0.0313079 278:0.0750635 553:0.0764386 2014:0.1155075 2015:0.0922882 2016:0.1096578 
1 4:0.044686 22:0.0326073 125:0.0313079 279:0.0719319 1691:0.0438082 1963:0.0719319 2017:0.1055075 2018:0.0996578 2019:0.0974339 2020:0.1155075 
1 19:0.0317788 58:0.0909132 680:0.0802718 781:0.0896578 890:0.0909132 1984:0.1055075 1985:0.0955075 1986:0.0955075 
1 19:0.0317788 22:0.0195644 58:0.0909132 680:0.0802718 781:0.0896578 890:0.0909132 1984:0.1055075 1985:0.0955075 1986:0.0955075 
1 296:0.0922882 536:0.0955075 568:0.0864386 584:0.0644222 750:0.1055075 774:0.0909132 1367:0.0896578 1959:0.0922882 
1 22:0.0065215 279:0.0719319 357:0.0738082 461:0.1022882 534:0.0922882 1987:0.1022882 1988:0.1022882 1989:0.1096578 
1 609:0.0909132 1378:0.0922882 1493:0.0630282 1973:0.1022882 1990:0.0785031 1991:0.1155075 
1 53:0.0809132 60:0.0864386 177:0.0469277 178:0.0445271 179:0.0451183 180:0.0830282 362:0.0492869 363:0.0455639 364:0.0477596 948:0.0582283 1747:0.1022882 1992:0.1055075 1993:0.0955075 1994:0.1096578 1995:0.0544222 
1 19:0.0317788 59:0.04437 94:0.0674339 146:0.0489254 1846:0.0790689 1996:0.1155075 1997:0.2310149 1998:0.1096578 
1 19:0.0635576 60:0.0864386 308:0.0549546 344:0.0531234 1044:0.0974339 1079:0.0669277 1080:0.1055075 1081:0.1096578 1082:0.1096578 
1 19:0.0317788 22:0.0130429 108:0.0479586 391:0.06401 476:0.0674339 964:0.0685031 1184:0.0938082 1371:0.0830282 1999:0.066681 2000:0.0830282 2001:0.0612448 
1 19:0.0317788 22:0.0130429 101:0.0227462 125:0.0626157 816:0.0456206 1832:0.0522882 1834:0.031888 2002:0.0997701 2003:0.0955075 2004:0.1155075 
1 22:0.0130429 108:0.0479586 125:0.0313079 239:0.0730282 253:0.0947393 265:0.058365 926:0.0874339 1657:0.0974339 1732:0.0533158 1834:0.031888 2002:0.049885 2005:0.0909132 2006:0.0632193 2007:0.1155075 2008:0.0922882 2009:0.1096578 2010:0.1155075 2011:0.1022882 
1 22:0.0065215 101:0.0227462 260:0.0433158 1271:0.0896578 1554:0.0885031 2001:0.0612448 2012:0.0482283 2013:0.0974339 
1 22:0.0065215 101:0.0227462 125:0.0313079 278:0.0750635 553:0.0764386 2014:0.1155075 2015:0.0922882 2016:0.1096578 
1 4:0.044686 22:0.0326073 125:0.0313079 279:0.0719319 1691:0.0438082 1963:0.0719319 2017:0.1055075 2018:0.0996578 2019:0.0974339 2020:0.1155075 
1 22:0.0260858 45:0.0650635 78:0.0190419 253:0.0473697 1625:0.0838082 1840:0.0682283 1862:0.1618263 1896:0.0455075 2021:0.0288719 2022:0.0974339 2023:0.1255075 2024:0.1255075 
1 22:0.0065215 253:0.0473697 275:0.036529 614:0.0607501 1144:0.0864386 1914:0.1022882 2025:0.0690689 2026:0.0738082 2027:0.1155075 2028:0.0938082 2029:0.0830282 2030:0.0738082 
1 22:0.0130429 170:0.0415414 281:0.0755075 1874:0.0809132 2031:0.1255075 2032:0.1155075 2033:0.0922882 
1 22:0.0130429 268:0.0687832 1142:0.1190167 1945:0.061078 2034:0.0996578 2035:0.1255075 2036:0.0996578 2037:0.1255075 2038:0.0715843 2039:0.1096578 2040:0.0909132 2041:0.0864386 
1 22:0.0130429 122:0.0425613 212:0.0674339 227:0.0796578 614:0.0607501 751:0.0730282 816:0.0456206 1363:0.0377926 1845:0.0471154 2042:0.1096578 2043:0.2510149 2044:0.1255075 2045:0.1255075 
1 22:0.0130429 1448:0.0846328 1954:0.0644222 2041:0.0864386 2046:0.1096578 2047:0.0909132 2048:0.1022882 2049:0.1155075 2050:0.1255075 2051:0.1255075 2052:0.1096578 2053:0.0955075 2054:0.1022882 
1 22:0.0130429 275:0.036529 281:0.0755075 466:0.0802718 530:0.1460564 614:0.0607501 751:0.0730282 894:0.0628396 1207:0.1770061 1691:0.0438082 1710:0.0846328 1845:0.0471154 2026:0.0738082 2055:0.1255075 2056:0.1055075 2057:0.1055075 2058:0.0996578 2059:0.1155075 
1 22:0.0391287 78:0.0190419 89:0.0996578 253:0.0473697 835:0.0655075 1834:0.031888 1843:0.0513289 1896:0.0455075 1932:0.0444746 1947:0.0609132 2060:0.1255075 2061:0.0699616 2062:0.0575633 2063:0.1022882 2064:0.0830282 2065:0.1255075 
1 22:0.0195644 45:0.0650635 275:0.036529 289:0.0521983 633:0.0938082 894:0.0628396 1363:0.0755851 1366:0.0664386 1963:0.0719319 2066:0.2408155 2067:0.1055075 2068:0.054112 2069:0.0564386 
1 22:0.0065215 32:0.0482965 268:0.0687832 1187:0.0636092 1947:0.0609132 2070:0.1155075 
1 6:0.0477596 22:0.0130429 78:0.0190419 177:0.0469277 178:0.0445271 361:0.0605889 362:0.0985739 363:0.0455639 364:0.0477596 735:0.0687832 1109:0.0705889 1176:0.0669277 1266:0.0498089 1857:0.0568038 2001:0.0612448 2002:0.049885 2071:0.0662001 2072:0.0822882 
1 22:0.0065215 463:0.0562001 1862:0.1618263 2073:0.0996578 2074:0.1255075 2075:0.0809132 
1 22:0.0130429 78:0.0190419 158:0.0715843 439:0.0269744 575:0.0796578 1025:0.0477596 1493:0.0630282 1710:0.0846328 1873:0.0276121 1878:0.1055075 2076:0.1255075 2077:0.2110149 2078:0.1155075 2079:0.2310149 2080:0.1155075 2081:0.0855075 2082:0.1255075 
1 22:0.0130429 30:0.0509586 227:0.0796578 517:0.0730282 1932:0.0444746 2083:0.1484293 
1 22:0.0260858 59:0.04437 60:0.0864386 200:0.0690689 253:0.0473697 254:0.0830282 718:0.0662001 1189:0.1155075 2084:0.0815843 2085:0.0922882 2086:0.0996578 2087:0.1096578 2088:0.0874339 
1 22:0.0195644 38:0.0715843 125:0.0626157 200:0.0690689 236:0.0485031 696:0.0275633 698:0.0664386 1345:0.0909132 1834:0.031888 2012:0.0482283 2089:0.1948678 2090:0.1255075 2091:0.0938082 2092:0.0759655 2093:0.1255075 
1 22:0.0260858 108:0.0479586 268:0.0687832 439:0.0269744 1932:0.0444746 1934:0.0822882 2068:0.054112 2094:0.1155075 2095:0.1255075 2096:0.0802718 2097:0.1022882 
1 22:0.0260858 122:0.0425613 275:0.036529 1142:0.0595083 1363:0.0377926 1834:0.031888 1841:0.0452838 1873:0.0276121 2098:0.0846328 2099:0.0785031 2100:0.1255075 2101:0.1055075 2102:0.1096578 2103:0.1022882 
1 22:0.0130429 78:0.0190419 260:0.0433158 275:0.036529 1142:0.0595083 1822:0.0385726 1836:0.0922882 2030:0.0738082 2104:0.0769277 2105:0.1255075 2106:0.1096578 2107:0.0790689 2108:0.1255075 
1 19:0.0317788 22:0.0195644 120:0.0614136 175:0.0796578 253:0.0473697 275:0.073058 517:0.0730282 1075:0.2030816 1363:0.0377926 1843:0.0513289 1917:0.0497332 2101:0.1055075 2109:0.0802718 2110:0.0846328 2111:0.1096578 
1 22:0.0130429 32:0.0482965 1282:0.0838082 1832:0.0522882 
1 22:0.0065215 253:0.0473697 260:0.0433158 1187:0.0636092 2112:0.1155075 2113:0.1096578 2114:0.1022882 2115:0.1155075 
1 22:0.0065215 63:0.0642146 321:0.0630282 816:0.0456206 1142:0.0595083 1494:0.0864386 1578:0.0955075 2110:0.0846328 2116:0.1255075 2117:0.0896578 2118:0.1255075 2119:0.1096578 
1 19:0.0635576 22:0.0065215 227:0.0796578 517:0.0730282 813:0.0815843 1025:0.0477596 1026:0.0764386 2120:0.1022882 2121:0.0730282 2122:0.1155075 2123:0.0796578 
1 22:0.0652145 59:0.04437 108:0.0959172 253:0.0473697 260:0.0433158 275:0.036529 816:0.0456206 984:0.0938082 1142:0.1190167 1359:0.0652838 1732:0.0533158 1834:0.031888 2124:0.0779586 2125:0.1255075 
1 22:0.0065215 30:0.0254793 78:0.0190419 1932:0.0444746 2026:0.0738082 2126:0.0726534 2127:0.1022882 2128:0.0742146 2129:0.0712448 2130:0.1096578 2131:0.1096578 
1 22:0.0065215 32:0.0482965 183:0.0609132 275:0.109587 653:0.0593604 816:0.0456206 1025:0.0477596 1363:0.0377926 1833:0.0624697 1873:0.0276121 1905:0.0457347 1990:0.0785031 2132:0.1096578 2133:0.1155075 2134:0.0864386 2135:0.1255075 
1 22:0.0065215 444:0.0664386 1142:0.0595083 1321:0.1022882 2136:0.1255075 2137:0.2510149 2138:0.1255075 
1 22:0.0195644 94:0.0674339 177:0.0938553 178:0.1781086 179:0.0451183 210:0.0474985 362:0.0492869 363:0.2278197 364:0.1910384 1266:0.0498089 1839:0.1096578 1858:0.0696578 1867:0.0682283 1905:0.0457347 1995:0.1088444 2139:0.0696578 2140:0.0822882 2141:0.0759655 2142:0.0679586 2143:0.0974339 2144:0.1255075 
1 22:0.0260858 32:0.0482965 125:0.0313079 169:0.0500385 198:0.0570526 1240:0.0726534 1834:0.031888 1867:0.0682283 1954:0.0644222 2145:0.0885031 2146:0.1255075 2147:0.1255075 2148:0.0896578 2149:0.1055075 2150:0.1022882 2151:0.0922882 2152:0.0796578 2153:0.0909132 2154:0.0938082 
1 30:0.0254793 366:0.0685031 2155:0.1055075 2156:0.1255075 2157:0.1255075 
1 22:0.0065215 46:0.0624697 198:0.0570526 377:0.1055075 792:0.0974339 2158:0.1255075 2159:0.1096578 
1 22:0.0065215 39:0.0864386 59:0.04437 287:0.0974339 311:0.0846328 2160:0.1155075 
1 257:0.0896578 289:0.0521983 396:0.1055075 2161:0.1255075 2162:0.1255075 
1 78:0.0190419 455:0.066681 1575:0.1155075 1741:0.0974339 2163:0.1055075 2164:0.0885031 2165:0.1055075 2166:0.1155075 2167:0.1255075 
1 181:0.0785031 183:0.0609132 558:0.0796578 965:0.0996578 1980:0.1096578 
1 390:0.0896578 1781:0.0974339 2168:0.1055075 2169:0.1255075 2170:0.1255075 2171:0.1055075 2172:0.1255075 
1 296:0.0922882 536:0.0955075 568:0.0864386 584:0.0644222 750:0.1055075 774:0.0909132 1367:0.0896578 1959:0.0922882 
1 110:0.0679586 298:0.0955075 802:0.0802718 854:0.0996578 1180:0.0996578 2173:0.1255075 2174:0.1255075 2175:0.1155075 2176:0.1096578 
1 59:0.04437 78:0.0190419 79:0.0922882 166:0.0624697 1018:0.0974339 2177:0.1155075 2178:0.1255075 
1 22:0.0065215 166:0.0624697 170:0.0415414 247:0.0955075 279:0.0719319 357:0.0738082 614:0.0607501 2179:0.1155075 2180:0.0885031 
1 146:0.0489254 166:0.0624697 232:0.0690689 797:0.0996578 1435:0.1155075 2028:0.0938082 2180:0.0885031 2181:0.1255075 2182:0.0996578 
1 166:0.0624697 174:0.0855075 186:0.0696578 2183:0.1155075 2184:0.1255075 2185:0.1255075 
1 22:0.0326073 78:0.0190419 167:0.1460564 177:0.0938553 178:0.0890543 179:0.0902366 210:0.0474985 362:0.0985739 363:0.0911279 364:0.0955192 515:0.0996578 542:0.0726534 826:0.1660564 881:0.0730282 1266:0.0996178 1736:0.0996578 1808:0.0576939 1995:0.1088444 2068:0.054112 2186:0.0938082 2187:0.1022882 2188:0.0530282 2189:0.0846328 
1 22:0.0065215 108:0.0959172 260:0.0433158 1834:0.031888 1963:0.0719319 2139:0.0696578 
1 22:0.0065215 1448:0.0846328 1834:0.031888 2190:0.0809132 2191:0.1022882 2192:0.1255075 
1 22:0.0195644 236:0.0485031 347:0.0774339 1130:0.1548678 1271:0.0896578 1834:0.0637761 2193:0.0590689 2194:0.2510149 2195:0.0815843 2196:0.1096578 2197:0.0955075 2198:0.1255075 
1 22:0.0130429 260:0.0433158 275:0.036529 816:0.0456206 1051:0.0602718 1371:0.0830282 1834:0.031888 1845:0.0471154 1866:0.0785031 1867:0.0682283 1961:0.0909132 2002:0.049885 2089:0.0974339 2120:0.1022882 2199:0.1055075 2200:0.1255075 
1 22:0.0065215 32:0.0482965 46:0.0624697 167:0.0730282 170:0.0415414 254:0.0830282 347:0.1548678 450:0.0864386 587:0.0709132 2002:0.049885 2012:0.0482283 2084:0.0815843 2088:0.0874339 2201:0.0547393 2202:0.1022882 2203:0.1022882 2204:0.0974339 2205:0.0874339 2206:0.0938082 
1 19:0.0317788 22:0.0260858 63:0.0642146 260:0.0433158 812:0.0885031 1342:0.0759655 1832:0.0522882 1834:0.0637761 1841:0.0452838 1845:0.0471154 1917:0.0497332 1963:0.0719319 2002:0.049885 2207:0.1155075 2208:0.0802718 2209:0.0938082 2210:0.1255075 2211:0.0755075 2212:0.1948678 2213:0.1022882 
1 22:0.0130429 177:0.0469277 178:0.1335814 179:0.0451183 210:0.0474985 363:0.0455639 479:0.0526534 835:0.0655075 1832:0.0522882 1857:0.0568038 2142:0.0679586 2214:0.0682283 2215:0.0785031 2216:0.0838082 2217:0.1096578 2218:0.1255075 2219:0.0830282 2220:0.1022882 2221:0.0559655 
1 22:0.0195644 45:0.0650635 272:0.0638082 504:0.0909132 816:0.0456206 1850:0.0676939 2201:0.0547393 2222:0.1096578 2223:0.1255075 2224:0.1155075 2225:0.0974339 2226:0.0796578 
1 22:0.0130429 359:0.0699616 881:0.0730282 1142:0.2380334 1841:0.0452838 1843:0.0513289 1871:0.0699616 2069:0.0564386 2227:0.1255075 2228:0.1155075 2229:0.1096578 2230:0.1255075 
1 22:0.0195644 101:0.0227462 125:0.0313079 439:0.0269744 506:0.0755075 709:0.0864386 894:0.0628396 1402:0.1055075 1517:0.0705889 1867:0.0682283 1965:0.0652838 2068:0.054112 2069:0.0564386 2231:0.0601159 2232:0.0562001 2233:0.1255075 
1 22:0.0130429 170:0.0415414 232:0.0690689 272:0.0638082 308:0.0549546 344:0.0531234 584:0.0644222 1363:0.0377926 1846:0.0790689 2234:0.1255075 2235:0.0996578 2236:0.1255075 
1 22:0.0195644 101:0.0227462 142:0.0746328 558:0.0796578 1845:0.0471154 1896:0.0455075 1945:0.061078 2237:0.1155075 2238:0.1155075 2239:0.0855075 
1 22:0.0260858 125:0.0313079 696:0.0275633 816:0.0912412 885:0.1096578 1832:0.0522882 1834:0.031888 2240:0.1255075 2241:0.1255075 2242:0.0974339 2243:0.1055075 
1 22:0.0130429 78:0.0380838 86:0.0709132 268:0.0687832 725:0.0809132 1808:0.0576939 1822:0.0385726 1940:0.0802718 2006:0.0632193 2064:0.0830282 2214:0.0682283 2244:0.1255075 2245:0.0830282 2246:0.0909132 
1 22:0.0065215 94:0.0674339 101:0.0227462 439:0.0269744 1513:0.0779586 1644:0.0619319 1691:0.0438082 1873:0.0276121 2239:0.0855075 2247:0.0885031 2248:0.0705889 2249:0.2510149 
1 22:0.0130429 169:0.0500385 1142:0.1190167 1363:0.0377926 1832:0.0522882 2250:0.06401 
1 4:0.044686 22:0.0195644 198:0.0570526 210:0.0474985 334:0.0769277 1808:0.0576939 1832:0.1045764 2021:0.0288719 2251:0.1255075 2252:0.0896578 
1 22:0.0260858 32:0.0482965 37:0.0746328 78:0.0190419 765:0.0922882 1822:0.0385726 2253:0.1022882 2254:0.1055075 2255:0.1155075 2256:0.0938082 2257:0.0838082 
1 22:0.0065215 78:0.0380838 101:0.0227462 979:0.0709132 1079:0.0669277 1089:0.0709132 1200:0.0293604 2119:0.1096578 2140:0.0822882 2232:0.0562001 2258:0.0896578 2259:0.1022882 2260:0.1993157 2261:0.0609132 2262:0.1055075 2263:0.1255075 
1 110:0.0679586 1142:0.0595083 1334:0.1022882 2264:0.1155075 2265:0.0938082 
1 19:0.0317788 22:0.0065215 30:0.0254793 166:0.0624697 317:0.0846328 455:0.066681 802:0.0802718 1095:0.0838082 1576:0.0996578 1840:0.0682283 1843:0.0513289 1854:0.1890846 2145:0.0885031 2266:0.1096578 2267:0.0642146 2268:0.1155075 2269:0.1155075 2270:0.0292321 
1 22:0.0326073 70:0.0759655 101:0.0227462 108:0.0479586 170:0.0415414 397:0.0796578 640:0.0896578 881:0.0730282 1822:0.0385726 1845:0.0471154 2012:0.0482283 2206:0.0938082 2271:0.0726534 2272:0.1255075 2273:0.0885031 2274:0.1255075 
1 22:0.0065215 38:0.0715843 125:0.0313079 170:0.0415414 341:0.0587832 439:0.0269744 1493:0.0630282 2275:0.1096578 2276:0.1910149 2277:0.0822882 
1 22:0.0130429 253:0.0473697 1142:0.0595083 1822:0.0385726 1841:0.0452838 
1 22:0.0260858 137:0.0634129 1142:0.0595083 1363:0.0377926 1545:0.0955075 1691:0.0438082 2278:0.1255075 2279:0.1255075 2280:0.1022882 2281:0.1255075 2282:0.0874339 
1 78:0.0190419 317:0.0846328 1135:0.1022882 1726:0.0974339 2283:0.1255075 
1 289:0.0521983 336:0.0815843 854:0.0996578 1018:0.0974339 1517:0.0705889 2284:0.0996578 
1 19:0.0317788 2128:0.0742146 2285:0.0938082 2286:0.1255075 2287:0.1155075 2288:0.1255075 2289:0.1055075 
1 17:0.0955075 22:0.0065215 125:0.0313079 221:0.0676939 369:0.0938082 2195:0.0815843 2290:0.2510149 2291:0.2510149 2292:0.1255075 2293:0.1255075 2294:0.1055075 2295:0.1255075 
1 4:0.044686 22:0.0065215 1448:0.0846328 1904:0.0779586 
1 22:0.0130429 125:0.0313079 169:0.0500385 265:0.058365 275:0.036529 539:0.1096578 1320:0.0822882 1493:0.0630282 1833:0.0624697 1949:0.0896578 2151:0.0922882 2296:0.1255075 2297:0.0709132 
1 22:0.0065215 108:0.0479586 2298:0.0996578 
1 22:0.0195644 59:0.04437 122:0.0425613 198:0.0570526 253:0.0473697 462:0.0938082 614:0.0607501 690:0.1645764 1850:0.0676939 1867:0.1364565 2219:0.0830282 2299:0.0909132 2300:0.1255075 
1 19:0.0317788 22:0.0130429 94:0.0674339 125:0.0313079 170:0.0415414 536:0.0955075 1289:0.0481604 1834:0.031888 1896:0.0455075 1913:0.0669277 2301:0.0874339 2302:0.1255075 2303:0.0822882 2304:0.1255075 
1 4:0.044686 22:0.0065215 78:0.0380838 122:0.0425613 210:0.0474985 813:0.0815843 1289:0.0481604 1625:0.0838082 1822:0.0771452 1862:0.0809132 1999:0.066681 2232:0.0562001 2305:0.1255075 2306:0.1096578 2307:0.0615843 2308:0.1255075 2309:0.0785031 2310:0.0974339 2311:0.0996578 2312:0.0774339 
1 22:0.0260858 45:0.1301271 78:0.0190419 151:0.0580928 375:0.0664386 1850:0.0676939 2232:0.0562001 2297:0.0709132 2313:0.0955075 2314:0.0996578 2315:0.0822882 
1 22:0.0260858 439:0.0269744 463:0.0562001 464:0.0785031 465:0.0671786 578:0.0802718 1363:0.0377926 1832:0.0522882 1863:0.0922882 1879:0.0996578 1932:0.0444746 2001:0.0612448 2083:0.0742146 2316:0.0938082 2317:0.1055075 
1 22:0.0065215 49:0.0702718 101:0.0227462 479:0.0526534 665:0.0662001 1363:0.0755851 1913:0.0669277 2188:0.0530282 2211:0.1510149 2213:0.1022882 2318:0.0722882 2319:0.1255075 2320:0.0938082 2321:0.0676939 
1 22:0.0195644 125:0.0313079 177:0.0469277 178:0.1335814 179:0.0451183 363:0.0455639 1691:0.0438082 1832:0.0522882 1945:0.061078 2142:0.0679586 2215:0.0785031 2216:0.0838082 2322:0.0909132 2323:0.1255075 2324:0.0755075 2325:0.1255075 2326:0.1255075 2327:0.1255075 2328:0.0815843 
1 22:0.0326073 45:0.0650635 78:0.0190419 585:0.0685031 1732:0.0533158 1808:0.0576939 1834:0.031888 1845:0.0471154 1965:0.0652838 2006:0.0632193 2329:0.0896578 2330:0.1022882 2331:0.1096578 2332:0.0896578 
1 22:0.0195644 78:0.0190419 142:0.0746328 210:0.0474985 1200:0.0293604 1342:0.0759655 1832:0.0522882 1834:0.0637761 1873:0.0276121 1896:0.0455075 1932:0.0444746 2012:0.0482283 2211:0.0755075 2333:0.0922882 2334:0.1255075 2335:0.0769277 2336:0.061078 
1 22:0.0521716 622:0.0838082 1732:0.0533158 2114:0.1022882 2337:0.1155075 2338:0.1155075 2339:0.1255075 2340:0.1255075 
1 22:0.0391287 397:0.0796578 698:0.0664386 1105:0.1055075 1624:0.0769277 2099:0.0785031 2301:0.0874339 2341:0.1055075 2342:0.0974339 2343:0.1255075 2344:0.1255075 2345:0.1155075 
1 22:0.0326073 32:0.0482965 107:0.0601159 169:0.0500385 253:0.0473697 391:0.06401 816:0.0912412 1142:0.0595083 1363:0.0377926 1834:0.031888 2346:0.1255075 2347:0.0802718 2348:0.1255075 2349:0.1255075 
1 4:0.044686 22:0.0195644 142:0.0746328 260:0.0433158 1652:0.0996578 1832:0.0522882 1834:0.031888 2350:0.1618263 
1 19:0.0317788 22:0.0326073 101:0.0227462 122:0.0425613 210:0.0949969 488:0.0632193 1120:0.0759655 1832:0.0522882 1834:0.0637761 1871:0.0699616 1896:0.0910149 
1 22:0.0130429 108:0.0479586 1436:0.0779586 1843:0.0513289 1932:0.0444746 
1 22:0.0195644 78:0.0190419 275:0.036529 1738:0.0764386 1873:0.0276121 1919:0.0855075 2012:0.0482283 2351:0.1055075 2352:0.1255075 2353:0.1155075 2354:0.0996578 2355:0.1155075 2356:0.0909132 2357:0.1255075 
1 22:0.0065215 59:0.04437 101:0.0227462 113:0.0687832 125:0.0626157 479:0.0526534 584:0.0644222 757:0.0734129 905:0.0922882 1363:0.0755851 1637:0.0885031 1792:0.0604295 2358:0.0830282 2359:0.0734129 2360:0.1096578 2361:0.1255075 2362:0.0896578 
1 6:0.0477596 102:0.0955075 186:0.0696578 239:0.0730282 746:0.0855075 1347:0.1155075 2363:0.0996578 
1 101:0.0227462 156:0.0846328 166:0.0624697 194:0.0809132 714:0.0796578 2364:0.1096578 2365:0.0955075 
1 984:0.0938082 1802:0.0896578 2366:0.1155075 2367:0.1096578 2368:0.1255075 
1 22:0.0065215 102:0.0955075 186:0.0696578 227:0.1593157 746:0.0855075 893:0.0938082 948:0.0582283 1390:0.0996578 2369:0.1155075 
1 156:0.0846328 158:0.0715843 299:0.0774339 308:0.0549546 655:0.0974339 2107:0.0790689 2284:0.0996578 2365:0.0955075 2370:0.1255075 2371:0.1155075 
1 22:0.0195644 33:0.0864386 35:0.0838082 45:0.0650635 101:0.0227462 1832:0.0522882 2372:0.1255075 2373:0.0874339 
1 22:0.0065215 727:0.0796578 1841:0.0452838 
1 22:0.0130429 32:0.0482965 120:0.0614136 253:0.0473697 1043:0.1096578 1493:0.0630282 1945:0.061078 2221:0.0559655 2374:0.1255075 2375:0.1255075 
1 19:0.0317788 22:0.0195644 101:0.0227462 125:0.0313079 289:0.0521983 653:0.0593604 1628:0.0709132 1896:0.0455075 1913:0.0669277 2092:0.0759655 2376:0.0769277 2377:0.2510149 2378:0.0719319 
1 4:0.044686 22:0.0195644 108:0.0479586 476:0.0674339 1093:0.1618263 1095:0.0838082 1792:0.0604295 1832:0.0522882 1834:0.031888 1933:0.2310149 2336:0.061078 2379:0.0922882 2380:0.1096578 
1 19:0.0317788 22:0.0065215 46:0.0624697 60:0.0864386 70:0.0759655 101:0.0227462 125:0.0313079 800:0.0822882 1255:0.1055075 1869:0.0779586 2336:0.061078 2381:0.1255075 2382:0.1255075 2383:0.1155075 2384:0.1255075 2385:0.1096578 2386:0.1155075 2387:0.0785031 
1 22:0.0260858 210:0.0474985 1493:0.0630282 1822:0.0385726 1917:0.0497332 1932:0.0889492 2062:0.0575633 2193:0.0590689 2388:0.0996578 2389:0.2510149 2390:0.066681 2391:0.0855075 
1 22:0.0260858 122:0.0425613 169:0.0500385 177:0.0469277 178:0.1781086 179:0.0902366 363:0.1366918 364:0.0477596 614:0.0607501 1266:0.0498089 1859:0.0696578 1995:0.0544222 2129:0.0712448 2342:0.0974339 2392:0.1155075 2393:0.06401 2394:0.1255075 2395:0.1255075 2396:0.1155075 2397:0.1055075 2398:0.0830282 2399:0.0996578 
1 22:0.0195644 210:0.0474985 578:0.0802718 812:0.0885031 1832:0.0522882 1833:0.0624697 1834:0.0637761 2252:0.1793157 2400:0.0790689 2401:0.1255075 
1 19:0.0317788 22:0.0130429 30:0.0254793 94:0.1348678 260:0.0433158 289:0.0521983 452:0.066681 1297:0.1096578 1834:0.031888 1843:0.0513289 1896:0.0455075 2150:0.1022882 2402:0.0909132 2403:0.0755075 2404:0.0759655 2405:0.0607501 2406:0.2510149 
1 22:0.0326073 30:0.0254793 78:0.0190419 101:0.0227462 391:0.06401 1917:0.0497332 2064:0.0830282 2071:0.0662001 2188:0.0530282 2197:0.0955075 2221:0.0559655 2407:0.1255075 2408:0.1255075 
1 22:0.0065215 46:0.0624697 125:0.0313079 137:0.0634129 443:0.0885031 479:0.1053069 530:0.0730282 894:0.0628396 1624:0.0769277 2409:0.1255075 2410:0.1022882 2411:0.1255075 2412:0.0955075 2413:0.1255075 
1 19:0.0953365 22:0.0195644 37:0.0746328 56:0.0624697 101:0.0227462 110:0.0679586 151:0.0580928 169:0.0500385 289:0.0521983 476:0.0674339 894:0.0628396 1275:0.0779586 1329:0.0664386 1834:0.031888 1934:0.0822882 2405:0.0607501 2414:0.1055075 2415:0.1155075 
1 22:0.0456502 33:0.0864386 122:0.0425613 210:0.0474985 221:0.0676939 506:0.0755075 1834:0.031888 1867:0.0682283 1884:0.0709132 2416:0.0885031 2417:0.1155075 2418:0.0938082 2419:0.1055075 
1 22:0.0065215 1832:0.0522882 2188:0.0530282 2252:0.0896578 2420:0.0922882 
1 22:0.0065215 108:0.0479586 321:0.0630282 1841:0.0452838 
1 22:0.0065215 177:0.0469277 178:0.0890543 179:0.0902366 210:0.0474985 361:0.0605889 362:0.1971478 363:0.1366918 364:0.0955192 714:0.0796578 948:0.0582283 1025:0.0477596 1266:0.0996178 1351:0.0702718 1843:0.0513289 1857:0.0568038 1995:0.0544222 2128:0.0742146 2399:0.0996578 2421:0.0922882 2422:0.0595083 2423:0.0802718 2424:0.0896578 2425:0.0864386 
1 22:0.0065215 32:0.0482965 46:0.0624697 167:0.0730282 170:0.0415414 254:0.0830282 347:0.1548678 450:0.0864386 587:0.0709132 2002:0.049885 2012:0.0482283 2084:0.0815843 2088:0.0874339 2201:0.0547393 2202:0.1022882 2203:0.1022882 2204:0.0974339 2205:0.0874339 2206:0.0938082 
1 19:0.0317788 22:0.0195644 101:0.0227462 210:0.0949969 1142:0.0595083 2426:0.1255075 2427:0.1255075 2428:0.0291775 
1 22:0.0065215 78:0.0190419 110:0.0679586 142:0.0746328 253:0.0473697 448:0.0855075 1834:0.031888 1841:0.0452838 2429:0.1484293 2430:0.1096578 2431:0.0874339 2432:0.0650635 2433:0.1255075 2434:0.1022882 2435:0.1255075 
1 19:0.0317788 22:0.0130429 1025:0.0477596 1459:0.1022882 1832:0.0522882 1905:0.0457347 2121:0.0730282 2226:0.0796578 2320:0.0938082 2436:0.0682283 2437:0.1255075 2438:0.1055075 2439:0.1255075 2440:0.1255075 2441:0.0815843 2442:0.0996578 
1 22:0.0195644 45:0.0650635 125:0.0626157 210:0.0474985 239:0.0730282 1832:0.0522882 1965:0.0652838 2145:0.0885031 2347:0.0802718 
1 22:0.0065215 225:0.0855075 236:0.0485031 439:0.0269744 470:0.1468259 1010:0.0896578 1025:0.0477596 1945:0.061078 2267:0.0642146 2443:0.0609132 2444:0.0796578 2445:0.0846328 2446:0.0779586 2447:0.1255075 2448:0.1055075 2449:0.1155075 
1 22:0.0260858 78:0.0190419 231:0.0838082 260:0.0433158 289:0.0521983 439:0.0269744 452:0.066681 653:0.0593604 1917:0.0497332 2022:0.0974339 2121:0.0730282 2335:0.0769277 2402:0.0909132 2405:0.0607501 2450:0.1155075 2451:0.1255075 
1 22:0.0130429 32:0.0482965 107:0.0601159 183:0.0609132 265:0.058365 334:0.0769277 1845:0.0471154 2152:0.0796578 2247:0.0885031 2452:0.1022882 2453:0.0790689 
1 22:0.0130429 690:0.1645764 2454:0.1255075 2455:0.1155075 2456:0.0938082 
1 22:0.0195644 108:0.0479586 198:0.0570526 331:0.0750635 1732:0.0533158 1840:0.1364565 2457:0.1255075 2458:0.0909132 2459:0.1022882 2460:0.1255075 2461:0.1255075 
1 19:0.0317788 22:0.0065215 183:0.0609132 1832:0.0522882 1834:0.031888 2462:0.1022882 2463:0.1255075 
1 22:0.0391287 950:0.1096578 964:0.0685031 1732:0.0533158 2025:0.0690689 2164:0.0885031 2232:0.0562001 2318:0.0722882 2464:0.1155075 2465:0.1096578 2466:0.0759655 2467:0.0955075 
1 22:0.0130429 123:0.1055075 142:0.0746328 226:0.0746328 578:0.0802718 894:0.0628396 1869:0.0779586 2190:0.0809132 2191:0.1022882 2468:0.2310149 2469:0.1022882 2470:0.0922882 
1 22:0.0195644 31:0.0790689 101:0.0227462 476:0.0674339 623:0.0996578 1079:0.0669277 1120:0.0759655 1191:0.0974339 1271:0.0896578 1732:0.0533158 2336:0.061078 2471:0.1255075 2472:0.1255075 2473:0.1155075 2474:0.0974339 2475:0.0846328 
1 22:0.0130429 32:0.096593 59:0.0887401 125:0.0313079 444:0.0664386 466:0.0802718 757:0.0734129 1223:0.0885031 1577:0.0864386 2059:0.1155075 2476:0.0838082 2477:0.1255075 2478:0.1255075 2479:0.0922882 2480:0.1255075 2481:0.0846328 2482:0.1096578 2483:0.1155075 
1 22:0.0130429 193:0.0974339 236:0.0485031 444:0.0664386 816:0.0456206 1691:0.0438082 1834:0.031888 1936:0.0864386 1940:0.0802718 2012:0.0482283 2328:0.0815843 2484:0.1096578 2485:0.1255075 
1 22:0.0065215 289:0.0521983 1834:0.031888 1845:0.0471154 1945:0.061078 2099:0.0785031 2239:0.0855075 2405:0.0607501 2486:0.1255075 2487:0.0909132 2488:0.1255075 2489:0.1255075 2490:0.0855075 2491:0.1255075 2492:0.1155075 
1 22:0.0195644 78:0.0190419 334:0.0769277 1947:0.0609132 1963:0.0719319 2493:0.0558496 2494:0.1022882 
1 22:0.0130429 1795:0.1055075 1834:0.031888 2022:0.0974339 2495:0.1255075 2496:0.1255075 
1 59:0.04437 172:0.0730282 473:0.1022882 2497:0.1155075 2498:0.1155075 2499:0.1155075 2500:0.1096578 
1 22:0.0195644 78:0.0190419 210:0.0949969 268:0.0687832 1697:0.0809132 2002:0.049885 2041:0.0864386 2423:0.0802718 2501:0.1055075 2502:0.1155075 2503:0.1255075 2504:0.1155075 2505:0.1255075 
1 19:0.0317788 22:0.0521716 120:0.0614136 125:0.0313079 128:0.0974339 236:0.0485031 253:0.0473697 275:0.036529 952:0.0815843 1822:0.0385726 1913:0.1338553 1917:0.0497332 1932:0.0444746 2012:0.0482283 2062:0.0575633 2069:0.0564386 2188:0.0530282 2193:0.0590689 2318:0.0722882 2506:0.0974339 
1 22:0.0065215 59:0.04437 108:0.0479586 2190:0.0809132 
1 4:0.044686 22:0.0391287 360:0.0738082 816:0.0456206 979:0.0709132 1359:0.0652838 1644:0.0619319 2134:0.0864386 2250:0.06401 2507:0.1096578 2508:0.1096578 2509:0.1155075 2510:0.0790689 2511:0.0785031 
1 22:0.0326073 343:0.1284293 488:0.0632193 1025:0.0477596 1051:0.0602718 1947:0.0609132 2069:0.0564386 2128:0.0742146 2335:0.0769277 2493:0.0558496 2512:0.0885031 2513:0.1255075 2514:0.1255075 
1 22:0.0130429 444:0.0664386 1349:0.0922882 2515:0.1255075 2516:0.1255075 2517:0.1255075 
1 22:0.0065215 203:0.0785031 481:0.0759655 2221:0.0559655 2518:0.1255075 
1 22:0.0195644 107:0.0601159 162:0.0838082 1294:0.0955075 1366:0.0664386 1796:0.2110149 2519:0.0846328 2520:0.1255075 2521:0.1845764 2522:0.1255075 2523:0.0955075 
1 17:0.0955075 22:0.0130429 59:0.04437 78:0.0190419 107:0.0601159 708:0.0996578 983:0.1096578 1223:0.0885031 2524:0.1022882 2525:0.1255075 
1 22:0.0260858 78:0.0190419 169:0.0500385 275:0.036529 733:0.1055075 1259:0.1022882 1513:0.0779586 1691:0.0438082 1841:0.0905676 2201:0.0547393 2429:0.0742146 2526:0.0809132 2527:0.0974339 2528:0.0846328 2529:0.0938082 2530:0.0996578 2531:0.1055075 
1 22:0.0260858 30:0.0254793 122:0.0425613 200:0.1381378 289:0.0521983 439:0.0269744 1841:0.0452838 2126:0.0726534 2532:0.1096578 2533:0.0996578 2534:0.0830282 2535:0.1022882 2536:0.1255075 2537:0.1155075 
1 6:0.0477596 22:0.0326073 219:0.1211779 275:0.036529 517:0.0730282 739:0.1022882 1691:0.0438082 1834:0.031888 2328:0.0815843 2538:0.0855075 
1 22:0.0586931 170:0.0415414 227:0.0796578 622:0.0838082 948:0.0582283 1025:0.0477596 2221:0.0559655 2321:0.0676939 2328:0.0815843 2539:0.1155075 2540:0.1255075 2541:0.1096578 
1 4:0.044686 22:0.0195644 46:0.0624697 108:0.0479586 125:0.0313079 167:0.0730282 331:0.0750635 847:0.0896578 1093:0.0809132 1832:0.0522882 1905:0.0914693 2542:0.1055075 2543:0.1096578 2544:0.1055075 2545:0.2510149 2546:0.0974339 2547:0.1255075 2548:0.0885031 
1 4:0.044686 22:0.0260858 78:0.0190419 1644:0.0619319 2106:0.1096578 2549:0.1155075 
1 22:0.0130429 1467:0.0709132 1808:0.0576939 1832:0.0522882 2550:0.0896578 
1 4:0.044686 22:0.0130429 289:0.0521983 1025:0.0477596 1187:0.0636092 1363:0.0377926 1834:0.031888 2271:0.0726534 2551:0.0955075 2552:0.1255075 2553:0.0922882 2554:0.0996578 
1 22:0.0130429 253:0.0473697 463:0.0562001 1144:0.1728771 1588:0.1022882 1834:0.031888 1999:0.066681 2555:0.1022882 2556:0.0790689 
1 22:0.0065215 816:0.0456206 1142:0.0595083 2557:0.1748678 
1 22:0.0195644 31:0.0790689 308:0.0549546 1493:0.0630282 1832:0.0522882 2558:0.0571786 2559:0.0722882 2560:0.1255075 
1 22:0.0065215 488:0.0632193 607:0.0830282 1822:0.0771452 1834:0.031888 2321:0.0676939 2378:0.0719319 2561:0.1255075 
1 22:0.0260858 86:0.0709132 122:0.0425613 178:0.0890543 179:0.0902366 260:0.0433158 321:0.0630282 362:0.1971478 363:0.1822557 364:0.0955192 470:0.0734129 653:0.0593604 1266:0.0996178 1691:0.0438082 1995:0.1088444 2012:0.0482283 2164:0.0885031 2336:0.061078 2425:0.1728771 2562:0.0909132 2563:0.1993157 2564:0.0996578 
1 22:0.0260858 63:0.0642146 108:0.0479586 196:0.0874339 198:0.1141051 210:0.0474985 1843:0.0513289 1905:0.0457347 2001:0.0612448 2201:0.0547393 2528:0.0846328 2565:0.1255075 2566:0.0922882 2567:0.0885031 
1 22:0.0065215 101:0.0227462 125:0.0313079 816:0.0456206 1142:0.0595083 1307:0.0996578 2568:0.1155075 2569:0.0938082 
1 22:0.0391287 272:0.0638082 444:0.0664386 470:0.0734129 1314:0.0896578 1493:0.0630282 1773:0.0830282 1822:0.0385726 1834:0.031888 2012:0.0482283 2188:0.0530282 2196:0.1096578 2250:0.06401 2267:0.0642146 2526:0.0809132 2570:0.1255075 2571:0.0974339 
1 19:0.0317788 22:0.0195644 46:0.0624697 238:0.0779586 278:0.0750635 429:0.0864386 542:0.0726534 842:0.0874339 1200:0.0293604 2481:0.0846328 2572:0.1255075 2573:0.1255075 2574:0.1155075 2575:0.1255075 
1 22:0.0260858 78:0.0380838 101:0.0454924 275:0.036529 889:0.1055075 1176:0.0669277 1834:0.031888 1896:0.0455075 2061:0.0699616 2405:0.0607501 2576:0.0690689 2577:0.0974339 2578:0.1255075 2579:0.1255075 
1 22:0.0195644 122:0.0425613 231:0.0838082 253:0.0473697 1051:0.0602718 1109:0.0705889 1187:0.0636092 1999:0.066681 2214:0.0682283 2378:0.0719319 2580:0.0815843 
1 6:0.0477596 22:0.0195644 32:0.096593 1142:0.0595083 2581:0.1255075 2582:0.1255075 2583:0.1155075 
1 30:0.0254793 70:0.0759655 243:0.1022882 529:0.0855075 1708:0.0864386 2584:0.1255075 
1 22:0.0456502 31:0.0790689 52:0.0864386 108:0.0479586 1652:0.0996578 1834:0.031888 2585:0.0864386 2586:0.1255075 2587:0.1255075 
1 19:0.0317788 22:0.0130429 622:0.0838082 1190:0.0846328 1431:0.1993157 1932:0.0444746 2444:0.0796578 2588:0.1022882 
1 22:0.0130429 122:0.0425613 260:0.0433158 488:0.0632193 1843:0.0513289 2250:0.06401 2336:0.061078 2422:0.0595083 2589:0.1255075 2590:0.0705889 2591:0.0896578 
1 4:0.044686 22:0.0130429 32:0.0482965 125:0.0313079 172:0.0730282 275:0.036529 1021:0.0815843 1320:0.0822882 1432:0.0938082 1481:0.0864386 2592:0.1255075 2593:0.1022882 2594:0.0809132 
1 22:0.0195644 125:0.0313079 272:0.0638082 444:0.0664386 455:0.066681 654:0.0764386 948:0.0582283 1064:0.0885031 1079:0.0669277 1363:0.0377926 1845:0.0471154 1903:0.0838082 2069:0.0564386 2115:0.1155075 2390:0.066681 2593:0.1022882 2595:0.2510149 
1 22:0.0130429 32:0.0482965 101:0.0227462 122:0.0425613 147:0.0896578 289:0.0521983 343:0.0642146 1834:0.031888 2596:0.1255075 2597:0.1255075 
1 22:0.0130429 122:0.0425613 343:0.0642146 1954:0.0644222 2598:0.0922882 
1 22:0.0065215 1834:0.031888 1947:0.0609132 2393:0.06401 2599:0.1096578 2600:0.1155075 2601:0.0996578 
1 19:0.0635576 22:0.0065215 78:0.0190419 125:0.0313079 170:0.0415414 238:0.0779586 760:0.0896578 864:0.0726534 1058:0.0974339 1329:0.0664386 1330:0.0909132 1934:0.0822882 2140:0.0822882 2602:0.0909132 2603:0.1096578 2604:0.1155075 2605:0.1255075 2606:0.0922882 2607:0.1255075 2608:0.1155075 2609:0.1155075 2610:0.1155075 
1 1187:0.0636092 1834:0.0637761 1904:0.0779586 2422:0.0595083 2556:0.0790689 2611:0.1155075 2612:0.1255075 2613:0.1255075 2614:0.1255075 2615:0.0712448 
1 22:0.0326073 175:0.0796578 177:0.0469277 178:0.0890543 179:0.0902366 362:0.0985739 363:0.1366918 364:0.1432788 816:0.0912412 1266:0.0996178 1832:0.0522882 1833:0.0624697 1857:0.0568038 1895:0.0759655 1995:0.1088444 2214:0.0682283 2616:0.1255075 2617:0.1155075 2618:0.1022882 
1 22:0.0456502 53:0.0809132 1025:0.0477596 1359:0.0652838 1755:0.1155075 2267:0.0642146 2270:0.0584643 2458:0.0909132 2619:0.0896578 2620:0.0922882 2621:0.2310149 
1 19:0.0317788 22:0.0195644 45:0.0650635 272:0.0638082 506:0.0755075 769:0.0655075 826:0.0830282 1691:0.0438082 1732:0.0533158 1913:0.0669277 1945:0.061078 2129:0.0712448 2221:0.0559655 2404:0.0759655 2622:0.1096578 2623:0.1255075 2624:0.1255075 
1 22:0.0326073 178:0.1335814 179:0.0902366 210:0.0474985 363:0.0911279 364:0.0477596 696:0.0275633 1503:0.0974339 1697:0.0809132 1832:0.0522882 1834:0.031888 1859:0.0696578 1867:0.0682283 2141:0.0759655 2142:0.0679586 2404:0.0759655 2625:0.1155075 2626:0.1876164 2627:0.1022882 2628:0.1155075 
1 4:0.044686 22:0.0130429 125:0.0313079 275:0.036529 371:0.2045764 2593:0.1022882 2629:0.1155075 2630:0.0922882 2631:0.1255075 2632:0.1255075 
1 22:0.0260858 101:0.0227462 835:0.0655075 1867:0.0682283 2481:0.0846328 2504:0.1155075 2633:0.1096578 2634:0.1255075 
